Drug_ID,PC1,PC2,PC3,PC4,PC5,PC6,PC7,PC8,PC9,PC10,PC11,PC12,PC13,PC14,PC15,PC16,PC17,PC18,PC19,PC20,PC21,PC22,PC23,PC24,PC25,PC26,PC27,PC28,PC29,PC30,PC31,PC32,PC33,PC34,PC35,PC36,PC37,PC38,PC39,PC40,PC41,PC42,PC43,PC44,PC45,PC46,PC47,PC48,PC49,PC50
DB00006,0.19810869626876704,0.4406290860480876,-0.5758353184419446,0.32905657022022605,0.7741308009603063,0.2551079270498471,0.04846522735128694,-0.350452739715569,0.017255189784365882,0.23932959448339564,-0.22604135375482912,0.036907116578650256,-0.12456897804072872,-0.2685314777920237,-0.017620565373682933,0.045126813387158835,-0.2630665191412772,0.5226923851918899,-0.5494220658171591,0.0904029338116099,-0.36905368005529626,0.7400582794562547,0.05009061856797715,0.22948190825537126,0.15813463608622652,-0.3461354392812546,0.11002116442738596,0.0740295520508757,0.22113693482190194,-0.18478577262731333,-0.22920377083726573,-0.031402838212391884,-0.0660359219846117,0.10923435990732928,-0.5401907139463262,-0.4199906783843539,0.06149060391502627,-0.15452473606873246,-0.16646460883331898,-0.015903968946142433,0.22595211550223254,-0.056220976942936096,0.11967976439692962,-0.10252970253986353,-0.047994854728159224,-0.03685837265751257,0.05499744932820624,-0.12230955411805397,0.3550820743627668,0.13529774431501773
DB00014,1.064101204706781,0.1120171312012341,0.13214366284559567,0.5814711849913543,-0.4357521669858707,0.5538658142209719,-0.2551034972413193,0.6764327908787937,-0.05900707097398779,0.7823921243611833,0.2922608357312145,-0.3577080674412019,0.37637531426850224,-0.012453803799714544,0.052292432170228643,0.22583874957001357,-0.0626188267442291,-0.04072055650930656,-0.0665280529576775,0.058298236264387605,-0.2482956470936517,0.05419676117364315,-0.3145788815286762,0.07386712936792057,-0.20313878730164753,0.09674526979538538,0.02115845330053192,-0.053063031437750936,-0.24365237643175028,0.07859377732630074,0.03680741366123673,-0.03699332333007566,0.0794343562853588,-0.09643627103346841,-0.19814370710539006,-0.05651485564431298,0.04680392951910743,0.10088110206832024,-0.09145666165887907,0.31618630592518127,-0.17538438822174487,-0.14839356941313153,0.18008098303556666,0.12374980229086573,0.1518602299483615,0.06250202453088188,-0.15912689938434904,-0.25092068086578767,0.11825393190140018,-0.24068463954211955
DB00027,0.0,0.0,0.0,0.0,0.0,0.0,0.0,0.0,0.0,0.0,0.0,0.0,0.0,0.0,0.0,0.0,0.0,0.0,0.0,0.0,0.0,0.0,0.0,0.0,0.0,0.0,0.0,0.0,0.0,0.0,0.0,0.0,0.0,0.0,0.0,0.0,0.0,0.0,0.0,0.0,0.0,0.0,0.0,0.0,0.0,0.0,0.0,0.0,0.0,0.0
DB00035,0.0,0.0,0.0,0.0,0.0,0.0,0.0,0.0,0.0,0.0,0.0,0.0,0.0,0.0,0.0,0.0,0.0,0.0,0.0,0.0,0.0,0.0,0.0,0.0,0.0,0.0,0.0,0.0,0.0,0.0,0.0,0.0,0.0,0.0,0.0,0.0,0.0,0.0,0.0,0.0,0.0,0.0,0.0,0.0,0.0,0.0,0.0,0.0,0.0,0.0
DB00050,0.12324554605811416,0.16369570118868806,-0.18680037326117807,0.0758722661649103,-0.01691525005530848,-0.12769189735140554,-0.130972431344022,0.3257428627424183,-0.005806961877534874,0.00847850706245021,-0.05375804946037817,-0.17687149058331603,0.05449906928347084,0.09461170002439626,-0.05684387625693157,0.031104517953612545,-0.18105495878491173,-0.05936329687316992,-0.24667218760842619,0.25013077927211264,0.1335922395111987,-0.11367401697197171,-0.12547120564192982,0.061776513520904956,-0.10202167281347127,0.044264625014960375,-0.129671528283418,0.30864843736310366,-0.08467981689387807,0.19482448436726563,-0.04575230539034282,-0.04496691697121196,-0.13545332279249336,-0.1037756833964406,-0.062225983101236504,0.09430984049912908,0.10074355565266283,-0.1194167122251003,0.005210105865184098,0.29461759485081307,-0.15944192401037324,-0.14791941314864768,0.2853670268237473,0.00697802749278075,-0.24030841172823467,-0.003490474266697031,0.007509543172063194,0.013157412678062072,0.21057198800225663,-0.08224896744411256
DB00080,0.17536299290725538,0.34856269421958513,-0.5379182002571574,0.08244422882931347,-0.6358683525619052,-0.5639607369201027,1.0923098400657203,-0.7260070335297422,-0.26826576827575555,0.29051761441038954,0.3913807829344301,-0.2440196996419333,-0.05453533748076437,0.05553893955259562,-0.5776426008650328,0.3465955211474649,-0.05645622720291252,-0.09022793860561444,-0.06494150298071182,-0.16211596644722748,-0.08551533340665732,0.3066618451047976,-0.266754745876412,0.17785267821793757,0.17561583989538992,-0.19011783383698394,-0.03159630985469557,0.12116884597965122,-0.3515113919719547,-0.13886436158146304,0.07100252863986965,-0.1316742479797164,0.0437505849937439,0.028637621603661997,-0.06353611376118823,-0.10020662877245207,0.15165603675753672,0.23093955510792746,0.20324366116450499,-0.045781582180674296,-0.25631429501144265,0.10122555562266924,0.15502016032012297,-0.02433557895269621,0.2836192642255268,-0.2917128921804269,0.013552510314723404,-0.06536694839021084,-0.15415870950215382,-0.21330806934731086
DB00091,4.322135224334014,0.5053009549065087,-2.7098477299284323,-1.7150084129492824,-0.5290293373270658,0.1757590301212679,0.16084183414059514,1.118452582170126,-0.48682614582770367,-0.24806258898807232,-0.7819431256245511,0.08576555396503244,-0.1604585057429165,0.22185635257372088,-0.6050590427332838,0.16672673712592817,2.507368593135859,0.42950707058480336,0.4350286720298444,-0.49196615052714043,-0.698325293952529,0.8233049891453259,-0.07320945731607192,1.0568889809282496,0.20710537895187062,1.238875274993909,-0.372353559256094,0.3447776206424349,1.211508040455127,0.20121193108656324,0.17690288117167013,0.41961003867878444,-0.04964702190554665,0.8256388911491024,-1.1553522529248144,-0.306327174793116,-0.5719537249431672,-0.5412441337764,-0.3610446401218944,0.9415859030238735,-1.9217765564394642,0.14848902810745493,-0.8862641619017524,1.1716805661767826,0.17502920713108447,-1.048205438590197,0.20038213670131522,0.1293426247359185,0.10590123441339332,0.27974656336699244
DB00093,0.0,0.0,0.0,0.0,0.0,0.0,0.0,0.0,0.0,0.0,0.0,0.0,0.0,0.0,0.0,0.0,0.0,0.0,0.0,0.0,0.0,0.0,0.0,0.0,0.0,0.0,0.0,0.0,0.0,0.0,0.0,0.0,0.0,0.0,0.0,0.0,0.0,0.0,0.0,0.0,0.0,0.0,0.0,0.0,0.0,0.0,0.0,0.0,0.0,0.0
DB00104,1.6455079284565233,0.23955759002522975,0.06327448415862157,0.7873912670058374,-0.7362326876894296,-0.03668903038694249,0.06481871086353437,0.08647896652014705,0.0013211335630463096,0.47750656324153007,0.38142030136906024,-0.2830819785020122,0.5980933315309778,0.4954354190135042,-0.10084158423968234,0.38902619027980617,0.5133554612247268,0.014695737310368884,0.06689658986003368,-0.25027172409856113,0.25385586417603695,-0.1794392212307643,0.5801890495413479,-0.3156343034811627,-0.3325642486611051,-0.19785157300952055,0.10241686242443548,-0.4332721551903867,-0.3297484483334627,0.22831428520588826,-0.5505435116705171,0.35372246294375187,0.07780769171608275,0.4185009897404123,-0.025178695318007205,-0.8543775982626916,0.13702686620131027,-0.4370002413432897,-0.11686398208205422,0.13947882793538996,-0.22583242438939155,0.17126415996213695,1.1661672024071135,-0.410742353146054,-0.32622877274523027,-0.4120581039079,-0.5135546174778358,0.5768678000067395,0.5371316674740312,-0.23289849711516825
DB00106,0.5791427175631044,0.06380733966385407,0.1356944150547318,0.39336336048575193,-0.46080603529373876,0.5442136502695868,-0.08125605332462238,0.22136454513964504,-0.13677323518300127,0.1321288595468003,0.053214525366135745,0.007784852950114073,0.20317106899533677,0.16327012547838285,0.14524577399129937,0.531824095082521,-0.22896449327868346,0.3630040689534618,0.06351992520724084,-0.0901016870072218,-0.23983411196104687,-0.00017661644299449622,-0.13541669690670302,-0.1429658415050295,-0.1376426132070617,0.016497676419207935,-0.03653673304508783,-0.024506544996679452,0.011831092036266469,0.0627981014391204,-0.00816046980508309,0.06577665470432913,0.07794092225571275,0.1451784171422713,0.024230315775471082,0.06913799265900157,-0.05708311968568419,-0.014048376258689528,0.04285389995016747,-0.007009322973747744,-0.07908924095183979,-0.003536652498362873,-0.0005130656903312575,-0.03116980120894492,0.06463002407021846,0.0073066767895467195,-0.04399533982881898,-0.017059033710843302,-0.011689660306805748,-0.024584386300378864
DB00114,0.0,0.0,0.0,0.0,0.0,0.0,0.0,0.0,0.0,0.0,0.0,0.0,0.0,0.0,0.0,0.0,0.0,0.0,0.0,0.0,0.0,0.0,0.0,0.0,0.0,0.0,0.0,0.0,0.0,0.0,0.0,0.0,0.0,0.0,0.0,0.0,0.0,0.0,0.0,0.0,0.0,0.0,0.0,0.0,0.0,0.0,0.0,0.0,0.0,0.0
DB00115,0.0,0.0,0.0,0.0,0.0,0.0,0.0,0.0,0.0,0.0,0.0,0.0,0.0,0.0,0.0,0.0,0.0,0.0,0.0,0.0,0.0,0.0,0.0,0.0,0.0,0.0,0.0,0.0,0.0,0.0,0.0,0.0,0.0,0.0,0.0,0.0,0.0,0.0,0.0,0.0,0.0,0.0,0.0,0.0,0.0,0.0,0.0,0.0,0.0,0.0
DB00116,0.0,0.0,0.0,0.0,0.0,0.0,0.0,0.0,0.0,0.0,0.0,0.0,0.0,0.0,0.0,0.0,0.0,0.0,0.0,0.0,0.0,0.0,0.0,0.0,0.0,0.0,0.0,0.0,0.0,0.0,0.0,0.0,0.0,0.0,0.0,0.0,0.0,0.0,0.0,0.0,0.0,0.0,0.0,0.0,0.0,0.0,0.0,0.0,0.0,0.0
DB00117,0.0520935312757462,0.10919693618887057,-0.06019072335813198,-0.05359890682019388,-0.018616479455650165,-0.027942144667336345,-0.06046960069915216,0.05158053718087904,-0.002778087174686847,-0.12310792187600345,0.0948522368795393,0.01972318858861648,0.13708007984936268,-0.023109259200170977,-0.03697367798661472,0.041762249506654116,-0.034245747217658676,-0.06278573105707906,-0.09042041659457625,-0.015319558052438086,0.06561248454286074,0.01574395199924716,0.012256675086399303,0.016713143861087257,-0.048627325098722744,0.012715582638289598,-0.07818392559658698,-0.06704820256720909,-0.18079881374408185,-0.008208888330173233,0.01236374970740117,-0.09983515839014946,0.041719173101686366,-0.06514576378159848,0.13371738535497896,0.02375159764558541,0.024551402778771214,0.13134189951776995,0.0559773681184212,-0.19710313527938864,0.10903152083689305,0.03211935197395887,-0.07917180973198376,-0.12107068025524505,-0.01087957914847014,0.1818999493119903,0.01595224800735364,0.04871344493451666,0.12326165603904524,0.2132730304236292
DB00118,0.04150203480697766,0.03452029014980353,-0.0369434692585366,-7.341064509516423e-05,-0.002098206187466695,0.01567711571461647,0.01535542904493226,0.027765003317804814,-0.0657912768201367,-0.14317273077209774,0.007552017574036336,0.012113709570776671,0.07713572773844445,0.11712853488381886,-0.09238174446444364,-0.06263886403507521,0.20257712484924434,0.1079052315119422,-0.12227366144546362,0.024821517026303374,-0.14042752643988043,-0.14679211667264147,0.146143204435929,0.09482899048624918,-0.07328435737210104,-0.18896367561824046,0.004705407495858044,-0.11833734401553302,0.2638421050784483,-0.057325550871417025,0.2334084814215373,0.4065725731627004,-0.175294214137323,-0.09812764621893899,-0.12258505427210487,-0.00824046501118812,-0.012890574511447416,0.3737831548173689,0.021841518461817165,-0.1819426109709351,-0.10490844961258741,-0.11306421667859312,-0.04145403692539064,0.057250230132839044,-0.03842784081425983,0.06791732191062276,0.11958726412488395,0.0017356810959416758,0.011723762770283665,-0.02931369820415146
DB00119,0.0,0.0,0.0,0.0,0.0,0.0,0.0,0.0,0.0,0.0,0.0,0.0,0.0,0.0,0.0,0.0,0.0,0.0,0.0,0.0,0.0,0.0,0.0,0.0,0.0,0.0,0.0,0.0,0.0,0.0,0.0,0.0,0.0,0.0,0.0,0.0,0.0,0.0,0.0,0.0,0.0,0.0,0.0,0.0,0.0,0.0,0.0,0.0,0.0,0.0
DB00120,0.12937224617128987,-0.06346562405153906,0.04846002079293021,-0.042374611658726746,0.046942703612726164,-0.03564068785412375,0.03634024178913455,0.004947646999201759,0.11694066365086457,-0.05452183500065845,0.0996454612669643,0.1037598202268299,-0.004905444428472528,-0.03274832740892024,0.12400722191190262,0.1667684659876241,-0.0905318346824599,-0.19297118550464326,0.007498532472865912,-0.01085798067023706,0.07058815730822303,0.16008625379715025,0.15327978221302582,0.00837038392384997,0.0672292024400307,0.0018920701434107664,-0.055158365837496996,0.07385842876337889,0.014441739046186978,-0.035902883167223544,0.11184930620162765,0.1618431546283133,0.017385361585452407,0.17193741803717827,0.11101486783317498,-0.07250655120894585,-0.037642829497886214,0.1524235128193228,-0.06763200222475466,-0.04344593771842254,0.004631854085748536,0.021860034553978225,0.031498471480460165,-0.08184602437748296,0.17490631812791568,0.029329102975593168,0.129464989865997,0.03817927959117278,-0.03003030156860372,-0.0021841267635445676
DB00121,0.0,0.0,0.0,0.0,0.0,0.0,0.0,0.0,0.0,0.0,0.0,0.0,0.0,0.0,0.0,0.0,0.0,0.0,0.0,0.0,0.0,0.0,0.0,0.0,0.0,0.0,0.0,0.0,0.0,0.0,0.0,0.0,0.0,0.0,0.0,0.0,0.0,0.0,0.0,0.0,0.0,0.0,0.0,0.0,0.0,0.0,0.0,0.0,0.0,0.0
DB00122,0.0,0.0,0.0,0.0,0.0,0.0,0.0,0.0,0.0,0.0,0.0,0.0,0.0,0.0,0.0,0.0,0.0,0.0,0.0,0.0,0.0,0.0,0.0,0.0,0.0,0.0,0.0,0.0,0.0,0.0,0.0,0.0,0.0,0.0,0.0,0.0,0.0,0.0,0.0,0.0,0.0,0.0,0.0,0.0,0.0,0.0,0.0,0.0,0.0,0.0
DB00123,0.07673960066525756,0.22354641704136685,-0.21620428560430266,0.18029626129723542,0.17930033848102672,0.0685970521699963,0.1182915330927803,0.12312776147923675,0.050722615364231095,-0.13922987822381908,-0.10169546637732013,-0.4887031109956098,-0.18473545361888952,0.2108827177072304,0.1028884636434256,-0.07196409750077114,-0.0653340398681162,-0.1626339085422477,0.22504916403035666,-0.09442109482331823,-0.07701384166819089,0.08922042784169221,-0.15493927928737874,-0.0006680841421468249,0.12888591298016908,-0.00040552223536929194,0.0044804522505941385,0.06354948819035641,0.15211529954362088,-0.14665852950580593,-0.02994404410553118,0.004838272516329942,-0.05395543062210315,0.18392033125902324,-0.012366290438550833,-0.08970856827488714,0.014341852482903823,0.001762744973279916,-0.02059591551453306,-0.11547758572329667,0.13518103263791395,0.12787205663066697,-0.0837813495867725,-0.10324046233006576,-0.17772790974189864,-0.22831195421572117,0.01771673183803138,-0.08632697381875211,-0.009155568436392116,0.08741280084638077
DB00125,1.9882454728853052,1.3322631416344237,-1.156572936105185,1.2273534274527433,0.7278189056379443,0.3286870589414077,0.045592281798789686,-0.718074426537445,0.07542270700146496,0.035189180123152974,0.3292290678573436,-0.13499940532348742,0.25686774724589345,0.34474421785568254,0.7403051588179029,1.2018278052104592,-0.5724692111567714,0.3938320278259589,0.5107390422401893,-0.07127219254624084,0.28552373594655944,-0.5484298501805069,0.44102047730535493,-0.0120775227806003,0.28269801632112435,0.6440259494462195,0.2995940344057204,-0.8332815077434914,-0.00769381770977836,-0.3521678035755406,0.1040695842699561,-0.05157185417224519,-0.6565763934568076,-0.40365451320303913,0.756869102649522,-0.3718440356044821,0.41891981391928823,-0.12426311802218726,-1.1159484772269495,-0.37134798812725484,0.3102770428782271,0.25630194427976793,-0.6969156701142958,-0.2330346789113884,-0.7625122416764408,-0.20341984444089917,-0.44702653630505507,0.6290324030669284,-0.2591335458173813,-0.07838723837019176
DB00126,0.0,0.0,0.0,0.0,0.0,0.0,0.0,0.0,0.0,0.0,0.0,0.0,0.0,0.0,0.0,0.0,0.0,0.0,0.0,0.0,0.0,0.0,0.0,0.0,0.0,0.0,0.0,0.0,0.0,0.0,0.0,0.0,0.0,0.0,0.0,0.0,0.0,0.0,0.0,0.0,0.0,0.0,0.0,0.0,0.0,0.0,0.0,0.0,0.0,0.0
DB00127,0.0,0.0,0.0,0.0,0.0,0.0,0.0,0.0,0.0,0.0,0.0,0.0,0.0,0.0,0.0,0.0,0.0,0.0,0.0,0.0,0.0,0.0,0.0,0.0,0.0,0.0,0.0,0.0,0.0,0.0,0.0,0.0,0.0,0.0,0.0,0.0,0.0,0.0,0.0,0.0,0.0,0.0,0.0,0.0,0.0,0.0,0.0,0.0,0.0,0.0
DB00128,0.0,0.0,0.0,0.0,0.0,0.0,0.0,0.0,0.0,0.0,0.0,0.0,0.0,0.0,0.0,0.0,0.0,0.0,0.0,0.0,0.0,0.0,0.0,0.0,0.0,0.0,0.0,0.0,0.0,0.0,0.0,0.0,0.0,0.0,0.0,0.0,0.0,0.0,0.0,0.0,0.0,0.0,0.0,0.0,0.0,0.0,0.0,0.0,0.0,0.0
DB00129,0.13978553028711463,0.042129690536040765,-0.09480708633471686,-0.01932027382855736,0.11110201867184002,-0.06385794972670741,0.05931881747149427,0.07006449711939466,0.08881117876759219,-0.12730092003713409,0.006015156067921472,-0.07843705874116678,-0.043761320016034645,0.07301779143889699,-0.03957099051328352,0.10027959475195662,0.16772217552618646,-0.24594998387147676,0.016498402422525506,-0.10663851585072064,0.06910519116176236,-0.0463496379357691,-0.06614009355038312,0.02817269224628641,-0.01320244552759199,0.07147490597420397,-0.14965783842643812,-0.0651125921357096,-0.0902736532937978,-0.08890973375826672,-0.02295603498919626,0.06358145075026547,0.1609419199729549,0.0010157983582786898,-0.14611908863023104,-0.09179956666654068,-0.0972343550705427,-0.03392097003849608,-0.05726569835419432,0.08658391935220003,-0.24647642088085794,0.11564459756480724,-0.21834597048609933,0.31567606577619306,0.09657711206760156,0.08434572770347866,0.1125068007878222,-0.0023078853612405574,0.0014034836429995569,0.019483706702227273
DB00130,2.026716664982177,1.223783873815427,-1.2298028620889698,0.8409863298825475,-0.6047367109577595,0.24456720110580582,0.669849598954487,0.5116675888083567,0.16817172229129626,0.43962062344364145,-0.041742822570127416,-0.9350410906348955,-0.3214131540642434,-0.30403374530199123,-0.02183156042448614,0.1512948293656944,0.3334045994510969,0.050274062217710525,0.29922073688485507,-0.3800600693777734,-0.33457291506649006,0.5565547317003378,0.6917521942185341,-0.5259477125709285,-0.24931297925477447,0.32502902809697964,-0.04491201746577969,-0.6479504427650578,0.30835877874780476,-0.4396162826037304,0.497924231630024,-0.5253469190658755,0.071873674143825,0.16085549408819624,0.711602843540685,-0.3860404355618413,0.34832633052184103,-0.07359237552889436,0.10899261891104539,0.050352446790205035,-1.0236855900704813,0.7263662047219714,-0.32731501397275975,-0.9086223382264113,-0.26857310047654104,-0.1785989524321703,0.4487925714154225,0.04990166629665829,-0.1891916725647929,-0.136326640426262
DB00131,0.0,0.0,0.0,0.0,0.0,0.0,0.0,0.0,0.0,0.0,0.0,0.0,0.0,0.0,0.0,0.0,0.0,0.0,0.0,0.0,0.0,0.0,0.0,0.0,0.0,0.0,0.0,0.0,0.0,0.0,0.0,0.0,0.0,0.0,0.0,0.0,0.0,0.0,0.0,0.0,0.0,0.0,0.0,0.0,0.0,0.0,0.0,0.0,0.0,0.0
DB00132,0.0,0.0,0.0,0.0,0.0,0.0,0.0,0.0,0.0,0.0,0.0,0.0,0.0,0.0,0.0,0.0,0.0,0.0,0.0,0.0,0.0,0.0,0.0,0.0,0.0,0.0,0.0,0.0,0.0,0.0,0.0,0.0,0.0,0.0,0.0,0.0,0.0,0.0,0.0,0.0,0.0,0.0,0.0,0.0,0.0,0.0,0.0,0.0,0.0,0.0
DB00133,0.2859808310344475,0.49586089034894715,0.40786558422904723,-0.18866021813024322,0.0657068352831157,-0.17108691421615815,0.12358149351521201,0.14301068639982908,0.03188873795313634,-0.2639220894250463,0.10770916000642483,0.214707260104928,0.14661314467814482,0.018653374404709253,-0.16677856186642337,0.006103284106552351,-0.3591876509382837,0.0330384901211159,-0.04412858307251181,-0.13435871454367676,0.3999326954496842,-0.342995535018748,0.13250433853872706,0.29830817627801476,0.10306971501992977,0.1962281874699308,0.6310093648023019,-0.009491163443843674,-0.06003834892284944,0.10796816109206274,0.01703649986819815,-0.2102325057603735,-0.012574486766013714,0.3334573727387402,0.0388677820170573,-0.22539644428506878,0.20077086402379174,0.104912978682453,0.15045098023496759,-0.1100260207387125,-0.09611013563180372,-0.36901320911695645,0.09779291702386297,-0.03779981093684129,-0.1664584689025172,-0.1315042121396108,-0.0037984736468082148,-0.1493580303777834,0.06849654753571639,-0.0005349452758801471
DB00134,0.25516862022094455,-0.009545111460511499,-0.03361219240768689,0.03822864413049479,0.058325325660903427,-0.17535152959328434,0.0977731767034338,0.11259718159467215,0.046027319273306465,-0.23526343097392974,-0.12729406336084928,0.0930820809097054,0.2450879005252345,0.32773931395565403,-0.12554644822494238,0.07629466413909079,0.6000457053016014,0.16547106664880057,-0.1083957440877771,-0.028718852228406422,-0.3131585865799601,-0.2292134946545078,0.37884188832551174,0.3282019002687205,-0.11098303867092275,-0.18094572222122554,0.1120898444847486,-0.15616997459253035,0.3689043470638952,-0.20602593125713675,0.08377116634631498,0.24018459033432987,-0.2640004620925047,-0.25035517422964526,-0.2382936899856922,-0.10117114442350225,-0.36331659918717385,0.17962935437065616,0.08181987216374847,-0.13969519565949093,0.07005817548616755,-0.19113396422230328,0.05244979122598653,0.06356237590820057,-0.26120145520471844,-0.12822564489010935,0.034287782891824395,0.261139367471258,0.1565955302141494,0.07435931337786923
DB00135,0.0,0.0,0.0,0.0,0.0,0.0,0.0,0.0,0.0,0.0,0.0,0.0,0.0,0.0,0.0,0.0,0.0,0.0,0.0,0.0,0.0,0.0,0.0,0.0,0.0,0.0,0.0,0.0,0.0,0.0,0.0,0.0,0.0,0.0,0.0,0.0,0.0,0.0,0.0,0.0,0.0,0.0,0.0,0.0,0.0,0.0,0.0,0.0,0.0,0.0
DB00136,2.0319346578474535,0.34490675150671835,-0.17233008298137958,0.7986235799968563,-0.21644505288010316,0.424469674631928,-0.1418095480880669,0.6109095286748032,-0.4791084377020057,0.052541211972867014,0.19024031603370337,0.4497549828490625,0.050127546020762526,-0.05005086608626051,-0.7346210377154632,0.023067381472296034,0.028893064785565775,-0.37113557945751297,0.474137575854681,0.2974522647398245,0.369644385055265,0.29926081516393155,-0.4466268994419761,0.3506239560477112,0.22981091094843087,0.5860221243284766,-0.24623288869574922,0.5070168875826011,-0.5690197537357999,0.5608758861286762,0.20793310257746786,0.6204750677703706,0.7363488778577263,0.2419519722375406,0.2625510980245882,0.006279946910597387,-0.1514555396546335,0.5200511735003636,-0.03441174447416706,-0.21519261512149673,0.017929371398251917,-0.12458310247123217,0.37915725795411065,0.4070650990388964,0.16550524100748257,-0.33670827228386957,-0.08713136767067067,0.38109366170686076,-0.20329369679931053,0.5797668285953304
DB00137,0.0,0.0,0.0,0.0,0.0,0.0,0.0,0.0,0.0,0.0,0.0,0.0,0.0,0.0,0.0,0.0,0.0,0.0,0.0,0.0,0.0,0.0,0.0,0.0,0.0,0.0,0.0,0.0,0.0,0.0,0.0,0.0,0.0,0.0,0.0,0.0,0.0,0.0,0.0,0.0,0.0,0.0,0.0,0.0,0.0,0.0,0.0,0.0,0.0,0.0
DB00138,0.0,0.0,0.0,0.0,0.0,0.0,0.0,0.0,0.0,0.0,0.0,0.0,0.0,0.0,0.0,0.0,0.0,0.0,0.0,0.0,0.0,0.0,0.0,0.0,0.0,0.0,0.0,0.0,0.0,0.0,0.0,0.0,0.0,0.0,0.0,0.0,0.0,0.0,0.0,0.0,0.0,0.0,0.0,0.0,0.0,0.0,0.0,0.0,0.0,0.0
DB00139,0.0,0.0,0.0,0.0,0.0,0.0,0.0,0.0,0.0,0.0,0.0,0.0,0.0,0.0,0.0,0.0,0.0,0.0,0.0,0.0,0.0,0.0,0.0,0.0,0.0,0.0,0.0,0.0,0.0,0.0,0.0,0.0,0.0,0.0,0.0,0.0,0.0,0.0,0.0,0.0,0.0,0.0,0.0,0.0,0.0,0.0,0.0,0.0,0.0,0.0
DB00140,0.0,0.0,0.0,0.0,0.0,0.0,0.0,0.0,0.0,0.0,0.0,0.0,0.0,0.0,0.0,0.0,0.0,0.0,0.0,0.0,0.0,0.0,0.0,0.0,0.0,0.0,0.0,0.0,0.0,0.0,0.0,0.0,0.0,0.0,0.0,0.0,0.0,0.0,0.0,0.0,0.0,0.0,0.0,0.0,0.0,0.0,0.0,0.0,0.0,0.0
DB00141,0.0,0.0,0.0,0.0,0.0,0.0,0.0,0.0,0.0,0.0,0.0,0.0,0.0,0.0,0.0,0.0,0.0,0.0,0.0,0.0,0.0,0.0,0.0,0.0,0.0,0.0,0.0,0.0,0.0,0.0,0.0,0.0,0.0,0.0,0.0,0.0,0.0,0.0,0.0,0.0,0.0,0.0,0.0,0.0,0.0,0.0,0.0,0.0,0.0,0.0
DB00142,0.05256197561886493,0.14767355672706423,-0.05178277552102087,0.02875853871012172,0.08444869008897718,0.006722622267104107,0.04108536551923416,0.0825650317116336,-0.015937414398653448,-0.06505847484628396,-0.03463859676763554,-0.12011198271000781,-0.10964692664977649,-0.0022569114768288684,-0.06398138426306017,0.020725578501435873,0.11726689436327438,-0.10818751747088408,0.03096403758653436,-0.11146241134377341,0.05114791143618965,-0.02295860477356344,-0.08778586208813552,-0.02768489399451671,0.029845500472087463,-0.022205080442255037,-0.16950117439652918,-0.011921035423740338,-0.1466729503123179,-0.04589666790539694,-0.09275803631680686,0.018405145112798067,0.17702676452484284,-0.014521988389051298,-0.042828286088564455,-0.1168607214400815,-0.045914551148942835,0.027129719322635602,0.003197292499618278,-0.0872950735990715,-0.011211931683332704,0.028620270311451795,-0.018797821059664772,0.3610031307249206,-0.034055505969869365,0.2514048858524348,0.07787221743549425,0.11783776325768733,-0.1111244789079719,0.006380661673866358
DB00143,0.5677452714795198,0.29024592954451833,-0.08133812267055807,0.3131011748026756,-0.20472138253784,-0.23403144811588372,0.2726406740898083,0.48673330985731705,0.3350561445596438,0.2700661400399108,0.14815208128325608,0.1708798174142028,0.18905082569088416,-0.506707550582157,-0.17294791233020002,-0.4478067986024174,0.09770420087066402,-0.398208506924837,-0.024726765191779417,-0.11899095650992081,0.2446535878722556,-0.06815177447951637,0.02299081099499055,0.1587296595084033,0.0982479718286503,-0.27497674638835656,0.2819490664645241,-0.6661234305625816,0.3395346688541323,0.17842712288227702,0.12031581457176296,0.22637120831703306,0.2490871324712332,0.27775635168589,-0.0028595984545935413,0.26812883069804494,0.31166273345025564,-0.1666582763738013,0.1774295320831124,-0.070424272324283,0.1593253667582515,0.07327075809513647,0.4128503578122473,0.05553549170357824,-0.32911235558562013,-0.13454982382313022,-0.002899034469150401,-0.15582127319816796,0.06923154209457374,0.008174513025472754
DB00144,0.0,0.0,0.0,0.0,0.0,0.0,0.0,0.0,0.0,0.0,0.0,0.0,0.0,0.0,0.0,0.0,0.0,0.0,0.0,0.0,0.0,0.0,0.0,0.0,0.0,0.0,0.0,0.0,0.0,0.0,0.0,0.0,0.0,0.0,0.0,0.0,0.0,0.0,0.0,0.0,0.0,0.0,0.0,0.0,0.0,0.0,0.0,0.0,0.0,0.0
DB00145,0.0,0.0,0.0,0.0,0.0,0.0,0.0,0.0,0.0,0.0,0.0,0.0,0.0,0.0,0.0,0.0,0.0,0.0,0.0,0.0,0.0,0.0,0.0,0.0,0.0,0.0,0.0,0.0,0.0,0.0,0.0,0.0,0.0,0.0,0.0,0.0,0.0,0.0,0.0,0.0,0.0,0.0,0.0,0.0,0.0,0.0,0.0,0.0,0.0,0.0
DB00146,0.035777010572416335,0.07885956454190594,-0.09746294307473033,0.06150043011004145,0.10710081584804745,0.049864485086824555,0.01750920046724543,-0.03473794430363232,-0.014566701681057358,-0.007234210273208383,-0.06869046317117698,-0.0713969063440371,-0.057841260977873496,-0.12650071899393742,-0.008570090013426967,0.046615791542227586,0.03776407134915324,0.06025086166579778,0.012315528564150304,0.039885786798255954,-0.046001606892522015,0.11513521491748423,-0.06291786836833496,0.028893918570494347,0.08773258188754376,0.0414539870899229,-0.013476907308509265,0.07221603851469822,0.0968273164632512,0.02486127506647491,0.04395923744154298,0.00858499284855892,0.08238584866218326,0.031543767954940224,-0.014289713646270888,0.017627500459040726,0.052387495677464244,0.004228204436849596,0.048667373247272654,-0.00713664011322007,-0.042924723324065134,0.10671541598878291,0.07027839990864007,0.1274399914991748,-0.06558622407890642,-0.16957315545912582,-0.03690375348125913,-0.03959522108126801,-0.014344599583763582,0.04504957551650129
DB00147,0.0,0.0,0.0,0.0,0.0,0.0,0.0,0.0,0.0,0.0,0.0,0.0,0.0,0.0,0.0,0.0,0.0,0.0,0.0,0.0,0.0,0.0,0.0,0.0,0.0,0.0,0.0,0.0,0.0,0.0,0.0,0.0,0.0,0.0,0.0,0.0,0.0,0.0,0.0,0.0,0.0,0.0,0.0,0.0,0.0,0.0,0.0,0.0,0.0,0.0
DB00148,0.0,0.0,0.0,0.0,0.0,0.0,0.0,0.0,0.0,0.0,0.0,0.0,0.0,0.0,0.0,0.0,0.0,0.0,0.0,0.0,0.0,0.0,0.0,0.0,0.0,0.0,0.0,0.0,0.0,0.0,0.0,0.0,0.0,0.0,0.0,0.0,0.0,0.0,0.0,0.0,0.0,0.0,0.0,0.0,0.0,0.0,0.0,0.0,0.0,0.0
DB00149,0.5080294209055619,0.683646517845442,0.1800675178567197,0.2654038679702758,-0.18622353103846306,0.6323309630277654,0.16563392592780157,0.10331645168136196,-0.14792872397367363,-0.25851798669011766,-0.32666265541795836,-0.5929949505887493,0.039013892092542565,0.3517102664745728,0.2844930308804727,0.09907250473461904,-0.02580660718155431,-0.4193275441690421,-0.014921175257545195,-0.14394476968319297,-0.19392445058372706,-0.25395338591100325,-0.24603543399077593,-0.1143509293635996,-0.27549147061554324,-0.21316602970734302,-0.36232677900497984,0.1613408824765925,-0.04522931462820734,-0.23305666116959486,-0.23149990439405657,0.19642732162225762,0.11706821923967468,-0.003943239075263519,0.2749957948991575,-0.2492647446106156,-0.0591247768035588,0.22740144300363588,-0.38642889979111184,0.15718267757223414,0.39390455728300616,-0.06432619638573461,0.15687858458614556,-0.23050420716756545,0.02604686930982738,-0.36725334472292176,-0.09363940117532496,-0.13672930521259974,0.24523429057077745,-0.18083422028853027
DB00150,0.5968155334912886,0.9362851532702369,0.7925912485690462,-0.13657970651201032,-0.26544171385533566,0.48497416633336965,0.10062127534473754,-0.19905242432305875,-0.18608769333280842,-0.15024225339760336,-0.0865019167732479,-0.27056849952077267,0.4589992090927438,0.02469766432653754,0.1767569138499533,0.08498003793051256,0.06388588781779897,-0.1167975340649163,-0.1334372576231526,-0.05875700798425943,-0.15324178050314285,0.012924035103191168,-0.1322829535375456,-0.09191109109491764,-0.4907408469705526,0.029812719129815396,-0.28242227061810377,0.2386500094446297,0.020343492145628594,-0.1019127205012495,-0.11660605268492291,0.1928744140138453,0.07400404810135126,-0.18067334359837472,0.06442564878190132,0.030161107861979845,0.22208931413465316,0.026193513499969,-0.31641102662127263,0.07083054748444927,0.20503272527079183,-0.01478433024698977,0.22313942967022946,-0.014273167723003967,0.1785358524113081,-0.18996174829272566,-0.05570422320408629,-0.039420949625140374,0.3375406795947784,-0.2735260785184048
DB00151,0.0,0.0,0.0,0.0,0.0,0.0,0.0,0.0,0.0,0.0,0.0,0.0,0.0,0.0,0.0,0.0,0.0,0.0,0.0,0.0,0.0,0.0,0.0,0.0,0.0,0.0,0.0,0.0,0.0,0.0,0.0,0.0,0.0,0.0,0.0,0.0,0.0,0.0,0.0,0.0,0.0,0.0,0.0,0.0,0.0,0.0,0.0,0.0,0.0,0.0
DB00152,0.0,0.0,0.0,0.0,0.0,0.0,0.0,0.0,0.0,0.0,0.0,0.0,0.0,0.0,0.0,0.0,0.0,0.0,0.0,0.0,0.0,0.0,0.0,0.0,0.0,0.0,0.0,0.0,0.0,0.0,0.0,0.0,0.0,0.0,0.0,0.0,0.0,0.0,0.0,0.0,0.0,0.0,0.0,0.0,0.0,0.0,0.0,0.0,0.0,0.0
DB00153,2.7204372263209913,1.6331188828374283,-1.6057604698984835,0.6274860810045864,-0.5880721709433483,-0.07085622482420353,0.21651928954686941,1.8067022968926123,0.03169539695490253,-0.19621802793547005,0.4076138153108253,-0.8087998317135241,-0.04658818536020849,0.5555825820861229,0.7437090827076092,-0.27737707191566774,0.3665294984782965,-0.2396177675359885,-0.5761656792345081,-0.5344253446936565,0.3450687078694301,-0.14665178059253908,0.7056063126554031,-0.912467173321386,-0.11203760845181043,1.2188920387138888,-0.17184354512035943,-0.2280834047620411,-0.35948126635120015,-0.3116975470286567,1.125216217511519,-0.621913567906465,0.5314735815533435,-1.0643779351303697,-0.1496300309571181,-0.8623245585975923,0.42938511507323707,-0.07781091419877029,0.32359843785070236,0.0940714284684652,1.3468662006044063,-0.09838626465562877,-0.4328871684681288,-0.4984131187508657,-0.4219248597906958,-0.057253924938631434,-0.2946381301669876,-0.5718613266147011,0.10836304823713895,0.868140308072433
DB00154,0.0,0.0,0.0,0.0,0.0,0.0,0.0,0.0,0.0,0.0,0.0,0.0,0.0,0.0,0.0,0.0,0.0,0.0,0.0,0.0,0.0,0.0,0.0,0.0,0.0,0.0,0.0,0.0,0.0,0.0,0.0,0.0,0.0,0.0,0.0,0.0,0.0,0.0,0.0,0.0,0.0,0.0,0.0,0.0,0.0,0.0,0.0,0.0,0.0,0.0
DB00155,0.0,0.0,0.0,0.0,0.0,0.0,0.0,0.0,0.0,0.0,0.0,0.0,0.0,0.0,0.0,0.0,0.0,0.0,0.0,0.0,0.0,0.0,0.0,0.0,0.0,0.0,0.0,0.0,0.0,0.0,0.0,0.0,0.0,0.0,0.0,0.0,0.0,0.0,0.0,0.0,0.0,0.0,0.0,0.0,0.0,0.0,0.0,0.0,0.0,0.0
DB00156,0.0,0.0,0.0,0.0,0.0,0.0,0.0,0.0,0.0,0.0,0.0,0.0,0.0,0.0,0.0,0.0,0.0,0.0,0.0,0.0,0.0,0.0,0.0,0.0,0.0,0.0,0.0,0.0,0.0,0.0,0.0,0.0,0.0,0.0,0.0,0.0,0.0,0.0,0.0,0.0,0.0,0.0,0.0,0.0,0.0,0.0,0.0,0.0,0.0,0.0
DB00157,0.0,0.0,0.0,0.0,0.0,0.0,0.0,0.0,0.0,0.0,0.0,0.0,0.0,0.0,0.0,0.0,0.0,0.0,0.0,0.0,0.0,0.0,0.0,0.0,0.0,0.0,0.0,0.0,0.0,0.0,0.0,0.0,0.0,0.0,0.0,0.0,0.0,0.0,0.0,0.0,0.0,0.0,0.0,0.0,0.0,0.0,0.0,0.0,0.0,0.0
DB00158,0.0,0.0,0.0,0.0,0.0,0.0,0.0,0.0,0.0,0.0,0.0,0.0,0.0,0.0,0.0,0.0,0.0,0.0,0.0,0.0,0.0,0.0,0.0,0.0,0.0,0.0,0.0,0.0,0.0,0.0,0.0,0.0,0.0,0.0,0.0,0.0,0.0,0.0,0.0,0.0,0.0,0.0,0.0,0.0,0.0,0.0,0.0,0.0,0.0,0.0
DB00159,2.946873261406698,2.4398521554326162,-0.5196558611844855,-0.09700266970333195,0.7719950032169942,0.6979651304132408,-0.0931477482001589,0.5028265769272839,-1.0896747105236197,-0.020790867134219293,0.835407658804581,-0.3591226161275774,0.6015606092541703,0.37739656398608756,-0.20300364995901563,-0.12513572734397466,1.1429245774019015,0.2539071672118443,-2.382618739833096,-0.5976010578941724,-0.3130563987487448,-0.40803630822042847,1.2263766549392108,-1.0643035770283675,-0.003258217971944699,-0.16716954478885585,-0.09691498968164275,0.769155864098469,0.04502897969302466,-0.4090523291663692,0.4912559289567758,0.02547678325556152,-0.4752234541119979,-1.2933123935357662,1.3028735559003932,0.4565602582053122,0.05445533128923194,0.2446853630754499,0.625797352340354,-0.6294299307909761,-1.322952303083086,-0.1902756066452316,0.15865274993689985,-0.3526473401122768,0.14302976920235694,0.3143889266237909,-0.23604146254827557,-0.13949130571142204,0.41054355227880435,-0.9151576308560005
DB00160,0.0,0.0,0.0,0.0,0.0,0.0,0.0,0.0,0.0,0.0,0.0,0.0,0.0,0.0,0.0,0.0,0.0,0.0,0.0,0.0,0.0,0.0,0.0,0.0,0.0,0.0,0.0,0.0,0.0,0.0,0.0,0.0,0.0,0.0,0.0,0.0,0.0,0.0,0.0,0.0,0.0,0.0,0.0,0.0,0.0,0.0,0.0,0.0,0.0,0.0
DB00161,0.0,0.0,0.0,0.0,0.0,0.0,0.0,0.0,0.0,0.0,0.0,0.0,0.0,0.0,0.0,0.0,0.0,0.0,0.0,0.0,0.0,0.0,0.0,0.0,0.0,0.0,0.0,0.0,0.0,0.0,0.0,0.0,0.0,0.0,0.0,0.0,0.0,0.0,0.0,0.0,0.0,0.0,0.0,0.0,0.0,0.0,0.0,0.0,0.0,0.0
DB00162,0.0,0.0,0.0,0.0,0.0,0.0,0.0,0.0,0.0,0.0,0.0,0.0,0.0,0.0,0.0,0.0,0.0,0.0,0.0,0.0,0.0,0.0,0.0,0.0,0.0,0.0,0.0,0.0,0.0,0.0,0.0,0.0,0.0,0.0,0.0,0.0,0.0,0.0,0.0,0.0,0.0,0.0,0.0,0.0,0.0,0.0,0.0,0.0,0.0,0.0
DB00163,0.0,0.0,0.0,0.0,0.0,0.0,0.0,0.0,0.0,0.0,0.0,0.0,0.0,0.0,0.0,0.0,0.0,0.0,0.0,0.0,0.0,0.0,0.0,0.0,0.0,0.0,0.0,0.0,0.0,0.0,0.0,0.0,0.0,0.0,0.0,0.0,0.0,0.0,0.0,0.0,0.0,0.0,0.0,0.0,0.0,0.0,0.0,0.0,0.0,0.0
DB00165,0.0,0.0,0.0,0.0,0.0,0.0,0.0,0.0,0.0,0.0,0.0,0.0,0.0,0.0,0.0,0.0,0.0,0.0,0.0,0.0,0.0,0.0,0.0,0.0,0.0,0.0,0.0,0.0,0.0,0.0,0.0,0.0,0.0,0.0,0.0,0.0,0.0,0.0,0.0,0.0,0.0,0.0,0.0,0.0,0.0,0.0,0.0,0.0,0.0,0.0
DB00166,0.012097107977575934,0.03827084560958505,-0.035794013585258085,0.02675101352286895,0.039286255822945634,0.003357861490035744,0.011067407135326938,0.04701450802345198,0.0032966896738862985,0.00999072028620706,-0.01634012295076735,-0.047492570885294634,-0.029487188939470513,-0.047704542514189346,0.0030756498789311338,0.007075257912250829,-0.03709877890738745,0.025748936769723462,-0.0160826937008151,-0.001936718596299878,-0.012894090132397978,-0.01627120026937543,-0.02664624476458923,0.0017892527567799031,0.037413102694817284,-0.008839034366344058,0.0092179312187332,0.05066017328885724,0.0038592868623915405,-0.011107875533946496,-0.04015114149797685,-0.04047122690630944,0.01651142680472743,-0.009996029186486774,-0.01087042383764379,-0.02293592122674376,-0.04912919487659991,0.03834167307765777,-0.016875945438933664,-0.022121154214354243,-0.018313123551931876,-0.045675774019597826,0.003225684293433263,0.006834454925393678,0.013097684575295447,0.01909396073340293,-0.020057318309331544,0.014688479766394473,-0.06490564894072869,0.007831810097242662
DB00167,0.006850933593588926,0.007913379576022938,-0.014691961094605748,0.008723805638495185,-0.03036480251574939,-0.016238774686649714,0.027529748352306625,0.0020718359104439006,-0.005268105206433989,0.009539829711679956,-0.004048767244801989,0.004051594073126596,0.013016612444026153,-0.012314740166159997,0.013658130094205924,-0.016221607724061272,0.010600341456978116,0.009619027499322794,-0.000260029374630311,-0.023060345508453168,-0.007573646164129501,-0.011224982669504146,0.03436597167565913,-0.029179980595579486,-0.01231457056212975,0.00867071907658217,-0.008159002972042367,-0.04511967843763968,0.011411882697388463,-0.02454269924603268,0.021596302297509487,0.03538527179503141,0.00699706145621354,-0.0357723049886869,0.012684492825394085,-0.016412419969124223,-0.005590529475444405,-0.016936957477187677,-0.002289945337240255,0.032982381476145885,-0.03952023126935041,0.014498941722562298,0.0013786415745591471,-0.06955948998665754,-0.014768044226437651,0.006580859999174459,0.026834801267801568,0.04047830215495684,-0.018980991795331942,0.03430254878275833
DB00168,0.00793496239635034,0.01549069080221783,-0.024484745684776075,0.002039254502213315,0.004863797613412414,-0.004945935593162649,0.004187407631130574,0.03527439765381186,-0.016570040291265655,-0.03209081785257953,0.003876884591874449,-0.013935708461931222,0.006181035379756365,0.04139611906601325,0.01628187932538606,0.008527802965652356,-0.0027597050822000097,-0.03509219490759119,0.014081782328181866,-0.005400655412933945,-0.016765584591484937,-0.001580814843142836,0.0015203242383838805,-0.00093223907879637,0.01910334829435187,0.0021200099753224365,0.008413732312569304,-0.021382529030762116,-0.011649785228005133,-0.01615872025601135,0.016398558238198028,-0.009520262627647486,-0.0013819898774903967,-0.0041097668944871475,0.01961639825631126,0.008281587773132194,0.016653488947462727,0.0050778224963794975,-0.017826050878857386,-0.0012246147853670938,0.043321970787862533,0.012245523906725776,-0.021740177943547368,-0.007119867173685943,-0.0035515289494284087,-0.018072723205500272,-0.0008175494891913095,-0.0040724909844246995,-0.019813149781197054,-0.015320813386792712
DB00169,3.4381028131340785,3.444986264329685,-2.151051398041272,0.3905463680633753,-0.1621042275667851,-0.7562040585159043,0.9608218996493636,1.8678641188372067,-1.3405517089249073,-0.4719759758825202,0.45011881463291187,-0.19939309222093665,-0.3328850900942835,1.6312870526933052,0.753273706462164,-0.3718693439081706,0.1601191053707989,-1.9827098544687012,-1.0304430398485536,-0.49293437900100695,-1.271275084228194,0.9293807567698664,-0.5830428810723168,-0.8182606330231345,-0.7597873378259836,0.5592061146555162,0.8327874940904314,0.07361318945178749,-1.7756095588139,0.8320122152391114,0.22934428624543715,0.6554181380987946,1.508792582432117,-1.6437602654473606,0.06344822792052662,0.5813582466255153,-0.07257464347271914,-0.6703260169485908,0.21360745929640348,0.14090885629471,1.0805194656298003,0.6866884839922603,-1.4374035369402616,-0.17121298887959843,1.049117746371295,-0.37294085554600503,0.04551740309461348,-0.7365628324179402,0.28917129693381094,0.05135070744375875
DB00170,0.0,0.0,0.0,0.0,0.0,0.0,0.0,0.0,0.0,0.0,0.0,0.0,0.0,0.0,0.0,0.0,0.0,0.0,0.0,0.0,0.0,0.0,0.0,0.0,0.0,0.0,0.0,0.0,0.0,0.0,0.0,0.0,0.0,0.0,0.0,0.0,0.0,0.0,0.0,0.0,0.0,0.0,0.0,0.0,0.0,0.0,0.0,0.0,0.0,0.0
DB00171,0.0,0.0,0.0,0.0,0.0,0.0,0.0,0.0,0.0,0.0,0.0,0.0,0.0,0.0,0.0,0.0,0.0,0.0,0.0,0.0,0.0,0.0,0.0,0.0,0.0,0.0,0.0,0.0,0.0,0.0,0.0,0.0,0.0,0.0,0.0,0.0,0.0,0.0,0.0,0.0,0.0,0.0,0.0,0.0,0.0,0.0,0.0,0.0,0.0,0.0
DB00172,0.0,0.0,0.0,0.0,0.0,0.0,0.0,0.0,0.0,0.0,0.0,0.0,0.0,0.0,0.0,0.0,0.0,0.0,0.0,0.0,0.0,0.0,0.0,0.0,0.0,0.0,0.0,0.0,0.0,0.0,0.0,0.0,0.0,0.0,0.0,0.0,0.0,0.0,0.0,0.0,0.0,0.0,0.0,0.0,0.0,0.0,0.0,0.0,0.0,0.0
DB00173,0.009324783884622,0.032187670828785396,-0.017005108424295225,0.016413807596739435,-0.008403013696644647,-0.002627942382748856,0.010066667938991762,-0.06437898033152703,0.00140826494508111,0.025184517429725384,0.038366573864097614,-0.002343639398477179,-0.013790336636203252,-0.04434520108383805,-0.013463670669207447,-0.008418333838598892,0.016321034208273404,0.019937978176391483,0.011949144797182136,0.0004058148567946717,-0.05182241551447407,-0.01911001626853663,0.0018275344873225031,-0.027917975286443623,0.034109988523430175,-0.03713162650208305,-0.016341487482072654,0.056220147507759645,0.008435514183686085,0.019914006788237307,0.002994425874521385,-0.05139732976171724,0.07577787415247116,0.053709102526126824,0.09416078766735654,0.01707275831487288,-0.011655367044036498,-0.023376873367768287,-0.011084768385730867,-0.03688450560492071,0.004413972737074761,-0.11771481640169831,-0.07753239114952128,0.057551258307163414,0.0031891051466300196,-0.05316487112191783,0.04002793220540454,0.04501431090849789,0.026484365426036872,-0.038450617927440645
DB00174,0.0,0.0,0.0,0.0,0.0,0.0,0.0,0.0,0.0,0.0,0.0,0.0,0.0,0.0,0.0,0.0,0.0,0.0,0.0,0.0,0.0,0.0,0.0,0.0,0.0,0.0,0.0,0.0,0.0,0.0,0.0,0.0,0.0,0.0,0.0,0.0,0.0,0.0,0.0,0.0,0.0,0.0,0.0,0.0,0.0,0.0,0.0,0.0,0.0,0.0
DB00175,1.3810505745721766,0.8912950896830831,-1.2544149834148832,0.6845657827628678,1.210823871589728,-0.1130952008488696,0.3220665935293326,0.30052291842451223,0.10232660003467864,0.6639794564780289,-0.28372428390693527,0.3309282806020382,0.3681787756236685,-0.6163553107852167,-0.5268769185892582,0.022250562578477837,0.3343689810425614,-0.33989351840244086,-0.7631593155928285,-0.41116400818307924,0.5288572922301554,-0.5857452768405191,-0.17576110129356137,-0.5324298305256403,0.90384504137229,-0.07463205539339018,-0.2649723689685948,0.3936914806183664,0.03390310870291792,-0.3727996123859677,-0.3232285648721335,0.15894204030222298,0.39994690711782566,-0.004799200121642047,-0.7421677908614073,-0.02248428933517682,-0.1663381805636841,-0.20049145628617904,0.1918101886908542,-0.3630726758366717,0.08368754538440998,0.23354725056099235,0.45214234489695193,0.5048303716069374,-0.6053355961739799,0.18640312540824816,-0.41839392793986624,0.41942973259906924,-0.23261048465662645,-0.5148945499610976
DB00176,0.5457328037555984,1.269661740787301,1.2950829909103114,-0.5779606188171038,-0.17951417239329412,0.49499946722978,0.2840212549531343,-0.17775469447831854,-0.5763106520839468,0.25514475988523483,-0.6871163272206282,0.014717435259438114,0.02578976597818189,0.07024681010501513,0.2172842732453639,0.36967628171954603,-0.02495552362919467,-0.10431170749633258,0.006553717066191803,-0.15081658419188138,-0.13321264278093115,0.03150802028536643,0.004696689498556707,0.10816968671669905,-0.10804299665212594,0.005064816786562933,-0.08153095150847345,0.048038157421675554,0.006355430689960046,-0.055540190977672654,-0.024286420279326607,0.021036323504325653,-0.04844436761022504,0.013570261661865498,0.03477399147305213,0.038687848158156034,0.14504503044706762,-0.15042952845513197,0.07321534073969566,0.03237936731874093,0.05163235325764387,-0.011476836918409207,0.01792868614527375,0.04404529206299219,-0.14777363925347373,0.08567913744952455,-0.032866216679165255,-0.19690979151554075,-0.05990502274065386,-0.03750102735656847
DB00177,0.30790259213749566,0.8753906591189837,-0.9735013159862645,0.6875672326513764,1.3943766569384295,0.6075697976869616,0.27775544376587147,-0.3479248053606069,-0.03162271827636856,0.058511004665789526,-0.17975313132167126,-0.46606924231065816,-0.09933300506335191,0.5018230171753435,-0.007544509021098808,0.03921560872610849,-0.015249921043153439,-0.16945146271325312,0.7876184104050703,0.21174222379865912,0.1641479022975893,0.15448970036061177,-0.05982692435274017,0.13997368114475958,0.13626305300688538,0.07182309315608401,0.13260506054350288,-0.1664761933800527,0.08600569766648103,-0.13456758889280257,0.07968749053594121,-0.06734960239722068,-0.14972039724268915,0.13352670443432477,0.06390046936146421,0.01524687916566405,0.05047694165253437,0.11932445525525909,0.38272362715036035,-0.14833038681364336,-0.02387878551724254,0.21947748058711086,-0.07106316340133312,-0.1903032716668448,0.21291522501066512,-0.2573056074983556,0.09484000554599023,-0.2477841114780392,0.00679893032146163,0.23935842233648794
DB00178,0.5144326344939414,1.1248832623979468,-1.4188217912927799,0.681588773021713,1.5984026811019916,0.48402484704148996,0.1161399283508602,-0.14463668782974753,-0.24888352377693532,0.037807727988777295,-0.4055474653072206,-0.24307058249421412,-0.002799788576474574,0.17348673978047524,-0.44109539159405703,0.32502068043068877,0.042503156945896965,-0.14611857065290357,0.24688974729498198,0.16025238536616407,0.39577185074530274,0.21943449091607492,-0.07079404301729378,0.13822193875088662,0.3272330123743605,-0.1273917653824621,-0.2594136874008087,0.1356671752299896,-0.19096562364731218,0.004738355935360192,-0.10679680091153801,0.05887630053205181,-0.014061939781718123,-0.0069222607109449275,-0.18205717626033482,0.19535563275655848,0.18544830966289605,0.0671026165556074,0.6083566890776703,-0.1724910935673996,-0.372897815577376,0.34714926835922744,0.1713294850412042,0.4489135534066708,0.17101763208160325,0.01559645232681714,0.15766305076703377,0.005328093255219435,-0.20305113215064854,0.04006023708218981
DB00179,0.3576489376890762,0.05703270443592616,0.09999219889692834,0.2427872705497783,-0.42587460440401825,0.5435542066171205,-0.008348135923190139,-0.13781757156125607,-0.10359887979944685,-0.12590762708285472,-0.27877450477483007,-0.022844187198198168,0.24967490026278483,-0.017437599953041116,0.13891821279763306,0.16029623685643027,-0.12192245639323628,-0.03096285851846096,-0.022904703862621716,-0.10168670746780972,-0.06214251313742045,-0.02296738790561309,-0.03145281690446724,0.022997446567222357,-0.03929077237590236,-0.056305874505249126,0.03201568999873692,0.04688085158457453,0.019692168207310658,0.04317969568048239,-0.01001640575392529,-0.017084247470695948,0.02209095201118804,-0.007414301578046336,-0.0066482813369087785,-0.022457445795479508,-0.01882926437836958,-0.0179717572581958,0.023522470296703898,0.029102343433029,0.005125361936391534,0.04450671768421309,-0.014970178711364458,0.0341386070421612,0.046506165072148616,0.006044668721393445,0.015081592455017577,-0.03993177063151825,0.01757357153286546,-0.02279581665516996
DB00180,0.06825511392798496,0.14933568296580818,-0.2234328660935423,-0.006991991006355471,-0.06689923330458439,-0.2175998662774179,-0.26479142271962386,-0.11835312349252569,-0.5489928741988446,-0.12833114485292102,0.29962059222822907,0.23836927593965673,-0.0946033351371306,-0.2350794949296123,0.7975318153768991,-0.26395253696884946,0.11675901816894202,0.011324602266361065,0.15961607126854008,-0.1398844119846834,-0.15066993793100777,-0.2144203125964657,-0.00584789058570797,0.07776718351103214,-0.03437213673924562,-0.11313342498170505,0.013957754496343178,0.016580520926822225,-0.10388403280999212,0.07466183569630659,-0.06696048036401822,0.034275845214245176,-0.04344535168276198,0.1316022563571383,-0.020656939460939817,-0.036856326861706784,-0.027885866169379055,0.01619537648178755,0.1176362474285722,-0.15691159791735382,-0.08010264303847656,-0.16542520831779095,0.03402294782461303,-0.14229339565038246,0.07762814226870224,0.006201235036573258,-0.04008702336442016,-0.03356957091078844,0.1876281064195252,-0.03900667113756169
DB00181,0.32834576521759423,0.7792021441415677,0.4249118841590659,-0.19285100402080307,0.027566947863702562,-0.08114692973949032,-0.16202648517632007,-0.0016955394667597448,0.385203269612043,-0.7563542133785738,0.6826008897653956,-0.06098411152199783,0.9189611695155244,0.0220675934941596,-0.3159002754552946,-0.4244779978458335,0.2872546796853065,0.04751191645777525,0.13918591680829118,-0.21162838164281933,-0.06298764220688965,0.24537636431767776,-0.18166422159105447,-0.4759411327948376,-0.35892538674117536,0.352873956059358,-0.36016181515352114,-0.006034582052820009,-0.17971580289008834,-0.4432349696095946,-0.7240172848742807,0.16135961522440642,-0.4324557421675342,-0.2772407613950523,-0.05134270719421504,-0.3166390332135963,0.09687231782035399,0.043709647170216054,0.04554421362111068,-0.04742399144709537,0.13289573758753703,0.3565015759208766,0.35927241422274925,-0.08664366919075364,0.10729948741155046,0.18028523875904182,-0.15945557621304784,0.6233794425132613,0.44724488024781917,0.3286208793811112
DB00182,0.033944594528224264,0.21766335326776273,0.1784791669134185,-0.09164425523666661,0.010201781398678528,0.03243056362884764,-0.0065848475234793575,-0.03841294694540488,0.11596338859238436,-0.19275395682119123,0.2688598442881173,-0.0016629673223055603,0.2972908772714068,-0.03587194555166254,-0.09922439836906066,-0.19377941272710028,-0.0036286280187987473,0.09861380155690695,0.13474810178912314,0.10236617425137301,0.006158584579077836,0.14169899819401544,-0.06247421327818587,0.041330358449460564,-0.16163023684283284,0.12055704915876976,-0.12626046022200652,0.09770432212984943,0.10109525634719946,-0.1182550781606084,-0.15615979030128882,0.09577875696022123,0.08622370104401667,0.04674488586982515,-0.13265985457933166,-0.030796263586585434,0.07263766959606463,-0.06067982030352649,0.08266386636353902,-0.050397547280259046,0.10332011679664313,0.1173056544454806,0.03690919967166757,0.03654389142071867,0.17427662086128037,0.12785048460894738,-0.040906956299495145,0.19263906202600806,-0.04893987025611202,0.028501924051106634
DB00183,0.0,0.0,0.0,0.0,0.0,0.0,0.0,0.0,0.0,0.0,0.0,0.0,0.0,0.0,0.0,0.0,0.0,0.0,0.0,0.0,0.0,0.0,0.0,0.0,0.0,0.0,0.0,0.0,0.0,0.0,0.0,0.0,0.0,0.0,0.0,0.0,0.0,0.0,0.0,0.0,0.0,0.0,0.0,0.0,0.0,0.0,0.0,0.0,0.0,0.0
DB00184,1.0310686840222163,1.501197476744035,0.5965255403069305,-0.03604780389020652,0.2774993484811134,-0.44862053154337844,-0.0960097589492796,-0.008036243173102295,-0.19433599620087055,0.1556207780064383,0.9797138854715899,-0.134828497860017,0.5274035637634084,-0.3161784147893826,0.14238500326577053,-0.47357809546935903,0.3751120139734726,-0.6950033627294073,-0.14599391224581326,0.18855232012733192,0.11344380467449436,-0.3964890177485338,0.050721759423610735,-0.2354799570507986,-0.25856169647079663,-0.1295397996188048,0.23952500681565425,0.1256449455861999,0.9744719364977423,-0.2748303362390665,0.7175705602285495,0.2679403796238289,0.4296673932810881,-0.12105062418177662,0.6404204277624862,-0.2738758152643205,0.24414150355710704,-0.59995736118401,-0.06740125117467691,0.5130003379292386,0.3690562971530788,0.5318754070218351,-0.05939304703047748,0.6434392093835153,1.0220237826085399,-0.030001448290586562,0.1219201249920826,0.4612402016552462,-0.5603117748185413,0.37896216753740875
DB00185,0.0,0.0,0.0,0.0,0.0,0.0,0.0,0.0,0.0,0.0,0.0,0.0,0.0,0.0,0.0,0.0,0.0,0.0,0.0,0.0,0.0,0.0,0.0,0.0,0.0,0.0,0.0,0.0,0.0,0.0,0.0,0.0,0.0,0.0,0.0,0.0,0.0,0.0,0.0,0.0,0.0,0.0,0.0,0.0,0.0,0.0,0.0,0.0,0.0,0.0
DB00186,0.7280034811281338,1.9816162930549794,1.692226867286247,-0.8129404597466068,-0.249146970504082,0.4796454102422959,0.24883089648010465,-0.08956405366559606,-0.20680417083545877,-0.0821577511648489,-0.2506242769321243,-0.019269395796150418,0.537918981333069,0.018631651957637302,0.030238712445827834,0.017090487726801287,-0.2743540413314485,0.25129630264775227,0.2540143186953325,-0.005233950110726214,0.06393283975196076,-0.017912954052112712,-0.01462460325655289,-0.20477840414888712,0.4460313436490957,0.07767356642701552,0.2616028850686687,0.15899740581228006,0.3008128537776137,0.5078663080133168,-0.1370430604009159,-0.40850156918296204,-0.40726665341357926,-0.15988587150865638,-0.12780779450698837,-0.3388927100411474,0.2977173944126042,0.17069242911059668,0.10936570696248704,-0.001492636073082046,-0.2957819384352171,-0.17704963344729358,-0.04491127292272053,-0.2451801320076602,0.1091691850637452,0.144760634712347,0.012182798097740359,-0.02897672332167614,-0.062420693160791574,0.018046059392752393
DB00187,0.1534150246535906,0.33548092260681617,-0.3639101492233666,0.30696863025666615,0.6585024072172115,0.2591229882194822,0.11119576442955917,-0.5011878247463658,0.0744440890234867,0.27519574000408403,0.04006575810952613,0.22167546343623867,0.08196651314877813,0.003264813511148712,-0.05320815133974268,-0.08019673763816143,-0.20573809367574183,0.08887900758515095,-0.3419246858764842,0.0006887035900726146,-0.35933338589573055,0.36886113461847475,0.05802836104153637,-0.049522198586594283,0.10266396320459159,-0.14125700196184307,0.07890331659578778,0.0856126268489517,0.060177553951877405,0.039766345960789776,0.11081151725927954,-0.034059646338020964,-0.021196903589944152,0.06869015766514877,-0.1395272486198259,-0.2702214838108788,0.18795590369377096,-0.019318185496425937,0.0331063991654801,-0.054052539873054195,0.04791695877289709,-0.14600632502440844,-0.05503659170067561,0.0036385126551908564,-0.08393990182333311,-0.3440616575499461,0.050248647317770304,0.19437815712243245,0.11656613120586674,0.0552069625435929
DB00188,5.794353338573908,-2.140914788980357,0.28680597309380185,-1.2500277366135972,0.9877177700934756,-0.567137228739228,0.1271497900550006,-0.6493145375497619,0.1847787682633694,-0.19510497274473304,0.1815977551577033,-0.2679454248353331,-0.6762876643436024,0.13409909676645138,-0.3903287863828352,-0.14664488201643033,-0.05279565894630618,0.30844487595853226,0.43304967945385775,-0.47085251549334833,-0.6137258563123825,-0.16663934642155737,0.5017076165980611,-0.18200137107547096,-0.4777953023327366,0.15846904008417317,0.7374322756184437,-0.44469716711274204,-0.02669837409937014,-0.09593444393309235,-0.9856830566796027,-0.29550081132895717,0.3908229692824114,0.14458557424487417,-0.0980103726364081,0.07142926027344931,0.449438699721901,0.40430046803070097,-0.6827555073613382,-0.19542413754432286,0.22461489381347685,-0.015366632472766414,0.15048742346688665,0.5883924777617697,0.840268926557002,-0.2886959211510959,0.23583143826000955,-0.6008613041374476,-0.04823233666521696,0.7228195063555991
DB00189,0.0,0.0,0.0,0.0,0.0,0.0,0.0,0.0,0.0,0.0,0.0,0.0,0.0,0.0,0.0,0.0,0.0,0.0,0.0,0.0,0.0,0.0,0.0,0.0,0.0,0.0,0.0,0.0,0.0,0.0,0.0,0.0,0.0,0.0,0.0,0.0,0.0,0.0,0.0,0.0,0.0,0.0,0.0,0.0,0.0,0.0,0.0,0.0,0.0,0.0
DB00190,0.3179306476562102,1.1794349498752799,0.2399467683283612,-0.2694325708672646,0.25800041365809406,-0.0820626731230569,-0.11532174925290826,-0.1445583211042808,-0.022117951965310165,-0.6459444013574821,0.9698967724179862,0.13685477110092759,0.6302064250848952,-0.25797758591823877,0.08945694462385133,-0.28841155909128563,-0.17900550507003762,-0.017413038599161733,0.11207594435243956,0.02847202038046652,0.6094620112565335,-0.22673961960449826,0.011270412221545466,0.43153753669472034,-0.5973962002843535,0.2154238990250687,0.07045608540706916,-0.04028291042827419,0.09724368965708086,0.23940078958062902,-0.02774950833362702,0.30937687665765445,0.4612340210337857,-0.013586740086730078,-0.3179843918622769,0.6103872063325962,-0.20872861534505735,-0.2024530028340674,-0.035718327624116614,-0.47371995067294753,0.10407591032588435,0.6291508369848127,0.23335677392216492,-0.2164255806863709,0.3206970885795035,0.3733744599805736,-0.186690260218978,0.16231417500902126,0.2664950154751795,0.2851705877125069
DB00191,0.1382668769891459,0.4977595990950399,0.08633477168524784,-0.014652065537979216,0.03710318276203592,0.08831610079886382,0.023139818453061012,0.04010791314211569,0.14070809313353577,-0.5745072552742518,0.37214309223002445,-0.40934839102423526,0.33840452947529487,0.3478709040871615,-0.12224997556867927,-0.3593935686388069,0.3883872873433837,0.022917366388299887,0.18476896102874282,0.06791555405805241,-0.30667446605684817,-0.02034489888079495,-0.008336328660890513,-0.10241745832340399,-0.2737769309912561,0.019826264434629065,-0.3062490558254599,-0.04176341324465749,0.3354107997557332,-0.25223317674405393,0.012772276750813563,0.5302797186656545,-0.35301934219808906,-0.10135093258107614,-0.2959856826007375,-0.015453153927045743,0.14743339805374306,0.3381646718784057,0.028412411416823595,-0.1458085219922572,-0.10727514730328626,-0.27957865974742124,0.21053555928509696,0.03326433442208884,0.23893085915468493,0.07563141294780608,0.07413110552185617,0.09325479431900292,0.11440728330931363,-0.18756785977223667
DB00192,0.0,0.0,0.0,0.0,0.0,0.0,0.0,0.0,0.0,0.0,0.0,0.0,0.0,0.0,0.0,0.0,0.0,0.0,0.0,0.0,0.0,0.0,0.0,0.0,0.0,0.0,0.0,0.0,0.0,0.0,0.0,0.0,0.0,0.0,0.0,0.0,0.0,0.0,0.0,0.0,0.0,0.0,0.0,0.0,0.0,0.0,0.0,0.0,0.0,0.0
DB00193,0.0,0.0,0.0,0.0,0.0,0.0,0.0,0.0,0.0,0.0,0.0,0.0,0.0,0.0,0.0,0.0,0.0,0.0,0.0,0.0,0.0,0.0,0.0,0.0,0.0,0.0,0.0,0.0,0.0,0.0,0.0,0.0,0.0,0.0,0.0,0.0,0.0,0.0,0.0,0.0,0.0,0.0,0.0,0.0,0.0,0.0,0.0,0.0,0.0,0.0
DB00194,0.004244499397168455,0.002368184333081498,-0.006142267386990747,-0.0017189902616072056,-0.009242533672115846,-0.00989988209331717,0.028711008538146628,0.012852962938342946,0.021114062659444335,-0.001599995939836858,-0.005170228388528581,0.0274415386128546,-0.003057787958214741,0.0021870868299156453,0.012378647985338708,0.007574855742181531,0.007793977820072264,0.005561118915064641,0.0031767227729987005,0.004824267437107966,0.001125414184840951,0.01704090966072208,0.017555231902548197,-0.0072955517755259125,-0.01303565233013943,-0.007731279764177446,-0.013494671473563428,0.002696026205976061,-0.02083983470966677,0.002188939690824024,0.015960942350385355,-0.019607570158718144,0.02717665264402239,0.027070334607649852,-0.011099101322921589,-0.007361862294388491,-0.02649494442904056,-0.00950356309812699,0.02657673726602238,-0.04580135283927891,-0.017217965054926558,0.018358620864873647,0.021912301690691343,0.031819106698122344,0.015634001918128592,-0.01265317083291756,-0.04804783589102851,0.02282588496688733,0.013235720090293179,0.00827704673212181
DB00195,0.05764367133094478,0.17878045092667888,-0.21396694178016568,0.16673625004763432,0.43125652337610426,0.18098718324471993,0.0021327652846874975,-0.3360697129714799,0.0009206318799783776,0.23398220762872066,-0.006390045042166632,0.4344208601192798,0.173745151921769,0.3479301720224772,0.00020423797193143737,-0.2189730697006475,-0.07342355945652677,-0.018527232823895817,-0.15288173762034207,-0.1516517006649163,-0.16229406729270165,0.07834679545801505,0.03263964927640345,-0.04718195394958591,-0.024335582202065373,0.005523831636203191,-0.03207539270025477,-0.08683793080589593,-0.004831502563041231,0.08103647540991335,0.05759405182794393,-0.019070776272156045,-0.056021519550655416,0.2086433119630646,-0.0730190960024068,-0.06279956829930164,-0.03569996170420152,-0.07964150119473642,-0.1317110543845345,0.16324348789693227,-0.09269090751181007,-0.09849892959551769,-0.037504803109818206,0.04077684084010148,-0.1699111436999315,0.16736333540627857,-0.056191943705325896,-0.08198647257555146,0.03674692248805865,0.18074119712509998
DB00196,1.0968381440917438,0.4991389344689715,-0.6590150378297522,-0.245258033795969,-1.0925677117584405,0.39856761025414433,0.7541207308958757,-0.023801187074950922,0.1477050113360249,-0.1742748746673255,-0.2259779402630046,0.442853587401547,0.0642883219953539,-0.02893908170406818,0.7684954459063278,-0.13276333498509774,0.1653637791020457,0.4102936103550139,-0.3951696889668851,0.07664765975593955,0.40166944822321093,0.0004033010529647177,-0.12884656626608015,0.1325628304224487,-0.01618565064164834,0.4328224274681936,0.2222434701712568,-0.34697331559847044,-0.03536690153033767,-0.019623660556328006,-0.19188550720797803,-0.40684099703841675,-0.011056756316259603,0.09461613643736878,0.1065213771497671,-0.5260048327802892,0.516746744442081,0.1695184530412152,-0.14236111707855803,0.19569992423346638,-0.6432829526412784,0.551173796729266,0.279297090445213,-0.004174835502541496,-0.1305982347287924,-0.20397552289565749,0.6460565617075477,0.11572361008387987,-0.425095489413718,0.03769727748324536
DB00197,0.15774193359201927,0.028082601533645307,-0.02678783186498373,0.02868522127997448,0.10239559886373256,-0.044777570970015244,0.030410933601417656,0.061742904040813916,0.05928458518505989,-0.09953543096872912,-0.008224578569429448,-0.21168129377053352,-0.06976912143816105,0.18371142968065274,0.14511762371603804,0.025987516424727727,0.03288152685601944,-0.2728656667054582,0.2855677685340053,-0.016962799154423204,-0.0632495207218895,0.06405899268625634,-0.08955608279209887,0.14859509237504887,0.1178586572878956,0.018938166506599692,-0.07979714522907005,-0.040337750864567215,0.24880021142730974,0.09594955874104258,0.06529052865035012,0.008857531091111287,-0.0986681629595001,0.12774784614659496,-0.029415055720739144,-0.1289923751745905,0.015053010373919595,-0.1430608729637436,0.023513595186443616,0.09656393162034624,-0.10337883624451145,-0.0744087529539742,-0.055894776606411456,-0.028786302843745278,0.1769206974371027,0.16302082714193467,-0.2080017414996692,-0.03381705477954475,-0.039458186173202986,-0.03833869065387025
DB00198,0.17136987442190948,0.29899555626450336,-0.3804731215354182,0.010199072230623347,-0.2356539212238663,-0.2241423443912009,0.4172782407293398,-0.08121410837030822,-0.014685374644252343,-0.08999724332019901,0.0869358838681821,-0.10750995633047053,0.13289715996073648,0.199049975965516,-0.15989051411585245,0.13639959143083252,0.4091814981346682,-0.017171080576083856,-0.1648642662323976,0.14247039697475136,-0.17185011293990607,0.12785385966667906,0.176589464933345,-0.0645085318798442,-0.27068734357767765,-0.1594135548922953,-0.0933506843550727,0.20943075717400278,-0.344093416718032,-0.1433511934073337,-0.06753309317452194,-0.23879345540950062,0.08198629737838886,0.025863446817660618,-0.11703185013789899,-0.15135748245516578,0.1015628772151489,0.09117697156097121,-0.18341149456597755,-0.29310418734123855,-0.027533183681898592,0.14951790411584825,0.33610909111986936,-0.30328896882326867,0.2456580952625943,-0.31108815001306367,-0.21910902718808664,-0.03648393023208652,0.09927696930251913,-0.04965756020252009
DB00199,0.8451427536640025,0.3426916968048688,-0.46133061807118003,0.3322453973615763,-0.4039676765050509,-0.6644612873077992,1.0315233069358312,0.15441195794719006,-0.11377022920462254,-0.22240027722179256,-0.29628450539471674,0.21662283534267035,-0.5356673512849588,-0.36527474748849587,-0.2314418456509255,-0.6537134772755372,-0.2466866535904766,0.20412781940227917,0.2738427691469275,-0.1606821418855601,-0.41482116184044787,-0.36524129918407394,-0.2587946625574612,-0.09592484047968566,0.03779624466995439,0.6571702377109946,-0.4505821459695107,-0.5304974016346735,0.03820989523297028,-0.3822916290840477,-0.10356562083131204,0.05542408867368136,0.05341240493014837,-0.28210385300947155,-0.3485122509871668,0.31389263352100577,-0.2216281345052955,-0.11809829776449429,0.4344490706464473,0.21633310012120788,0.12846960687690176,-0.06083289650442318,-0.29077262348159544,0.6367597703605025,-1.627721790128933e-05,0.10375125790525946,0.25990803653695843,0.08872182349293845,0.23819878062120664,-0.12907338891245126
DB00200,0.0,0.0,0.0,0.0,0.0,0.0,0.0,0.0,0.0,0.0,0.0,0.0,0.0,0.0,0.0,0.0,0.0,0.0,0.0,0.0,0.0,0.0,0.0,0.0,0.0,0.0,0.0,0.0,0.0,0.0,0.0,0.0,0.0,0.0,0.0,0.0,0.0,0.0,0.0,0.0,0.0,0.0,0.0,0.0,0.0,0.0,0.0,0.0,0.0,0.0
DB00201,1.3880144540552657,2.160752395980079,-0.47541586802820684,0.43215260463790905,-0.6360043193378624,0.22376657992345012,-0.8469177803566907,0.704012261400761,0.8981211588670359,-1.348143672205506,0.7394888490273342,-0.4682245169802159,0.8318971015595914,1.1045201951917305,-0.23598526596347116,-0.03323219401929423,-0.37714038490957746,1.0080211476702032,-0.33947317053391485,0.2814542369384366,-0.5463514882949465,-0.17522636547252007,0.10501967876274258,0.8472648554212789,0.2865324025065529,-0.12556836851978015,0.1743072432020164,0.4305834464960297,0.6077443098477954,0.12776269987848818,-0.23822113577828147,0.9629935310981631,0.2902309751521587,-0.11016023252901819,-0.27743745652244484,-0.24719689431273464,0.39062615674030476,0.8884038807731154,-0.12757642394789356,0.08538326301749088,-0.06534954845196819,-0.18211099590251154,0.2225179055210967,-0.26641418060541155,-0.560172859611224,-0.9656692512267195,-0.3938147543582662,1.1743615216323124,0.038504802690791144,0.13827805445483402
DB00202,0.024013596276878317,0.09315306421497975,-0.017748522283987406,0.031940138045343354,0.060979795841845756,0.013491733032947446,-0.013030063587771536,-0.06013197302335208,0.0398565753580433,-0.10455328244858554,0.061659362374723706,-0.018751131831671496,-0.03791360781076523,-0.18115913684237597,-0.015739982996163304,0.03817375422925965,-0.0017355932320498016,0.10245309826709209,-0.025642320815234036,0.07882325781634006,-0.007188967232585272,0.13133335549064276,0.03475070362595674,0.13577520972974638,-0.009394138131229041,-0.02432235333686862,-0.03989061658781791,0.05786678815164132,-0.0019786227253247965,-0.05474248201797384,-0.036177858194016047,-0.03505962539079405,0.060163133643471096,0.10005937742086526,-0.05144889156311594,0.03740597177773065,-0.013690728534067975,-0.05350293468158548,-0.00011332463316086681,0.00028362933518605847,0.055112616952534624,-0.062445420655940866,0.02449382223835944,-0.09251732658421531,0.06982616980266007,0.20254103094602371,0.0030362378400586158,-0.12984695797138432,0.1356911577841503,0.039589286983070876
DB00203,1.7823760291133401,1.4097526331725878,-0.9277047016449724,1.0289737934126988,0.1751557909034279,0.6789968288807927,0.14458586464126696,-0.19712733244641822,0.06865284378873346,-1.1530944105241494,0.5631278998003031,-0.561273632203934,-0.3387042663260763,-0.6551526432022884,-0.13908347716744182,1.4651495852207475,0.36515510753516145,0.38780300520770505,0.9173957460616244,2.0670589230669085,-0.03383943423051103,-0.28184953700867765,-0.13820745812636734,0.4536673084118793,-1.2181296008575428,0.4152393140442817,-0.14343031735679945,-0.80367378199084,-0.04105290207491531,0.42828312762556664,0.7638199136894875,-0.08592669973155256,0.286493044590217,-0.24795114956004766,0.0034166856572308557,0.6864050244127053,0.11521900743901403,-1.1137562817721085,-0.5559250776642484,1.1157904928029152,-0.13952865769999312,-0.7229666343899541,1.0538115997968984,-0.27031107627269024,0.16282540190391254,0.3249124852292963,-0.36387058901650543,0.09750866742422243,0.39224605231452053,-0.30113498963511287
DB00204,0.06333111984313498,0.19394285270310274,-0.22288380465025598,0.1730238221213661,0.3042228951720963,0.13514131215523012,0.01046393403314711,-0.12564394624094183,-0.03882740010594417,0.03143135900596738,-0.024619777064276642,-0.19694252331619164,-0.05969972796256821,0.02091622971769427,0.014699489022054101,0.0756195400403763,0.07067138678301946,0.019363029321093406,0.22932076185425476,0.22017819015905157,-0.012608273154973586,0.2261298268263173,0.10964635606488934,-0.024423251764143207,0.0010641577591816928,-0.0907510322265378,0.21632627138120805,-0.09710155730285887,0.033449727496374794,-0.10804565690975394,0.2529903629005443,-0.0317836031821064,0.027043896840712397,-0.08552432004861649,0.31107546407485576,0.04713251806569507,0.25163074657453566,-0.04041408164479418,0.43444641359263947,0.0880445380278071,0.0498405775452074,0.03591346191804805,-0.022401974474103928,0.07132019471093953,0.2084712595614143,-0.1217847894178212,0.15834319993003187,0.24565882378635698,0.023617990999485333,0.3251821636240877
DB00205,0.421252113095483,0.04139114678040999,-0.3373209386829605,-0.4732721356429288,-0.11124000285392051,0.1347926707592283,0.057049458358564,-0.07742249775399282,0.21651304296420606,-0.09415268994449973,-0.00724197803884245,-0.08018667884795914,-0.2159628473192696,-0.027227877412179635,-0.078272070675883,-0.043409443769531264,-0.017229165703219085,-0.11144898580538193,-0.10823436220492712,0.12224284758089207,-0.18651452498810386,-0.2560774821047039,-0.17829204793064712,-0.001604844987887195,0.03909204691664039,0.13425152324474388,0.3201744409275018,-0.03749528639954157,0.0615492343047942,0.2819854098472024,0.006216534313294287,0.009692830740857012,-0.1715962552298369,0.023252590381157102,0.07716088772821827,0.14070646163609496,-0.16811906401123572,-0.018066323802850358,-0.24091173952712908,0.16521134120996334,0.38548547157436786,-0.11999300138063092,-0.20512517281739365,0.35240155482834523,-0.3910931170686217,0.23138583023440543,-0.2684144431412152,0.342894040338697,0.08108869630378977,0.2767014083715174
DB00206,0.1299571549501276,0.43247663420411325,-0.14082865869268255,0.1598590654395898,0.398248866519336,0.21845972945465322,0.007468279684340509,-0.29226197946867005,0.17384732966526653,-0.09633535585586167,0.17288857856425585,0.006046237185913544,0.21912661861651786,-0.4619701431008159,-0.15775322560084665,0.1563283787042767,0.15751081678706563,0.22266373782537086,0.5630513786250061,0.347349781500696,0.4932303044415361,-0.06259383570508324,-0.0006100178737746004,0.16733536374919084,-0.3193424431420878,0.34802023449955233,-0.12551275740095244,0.14523278101183837,0.034622673877305735,0.16080677253162254,-0.2204052456437343,0.18571344502827777,0.004755236036217261,-0.13126764752810197,-0.38628291623306255,0.29693647469834783,0.04099566084172971,0.11062692665074264,0.21838448358977783,0.08158531158743813,0.14825234695035158,0.021136476814044264,-0.03214455025191992,0.003678297872540058,-0.0089191583604765,-0.06643267158250207,-0.015927070870969576,0.0739662324784588,-0.0056186903378807745,-0.23730388738158834
DB00207,0.7832437261699806,1.431888496218221,-1.7082051796222388,-0.04287322372849321,-1.548987759429395,-1.7658278926205735,1.149610169991928,-0.979008250984218,-0.6607355648758062,0.1355046565999133,0.6758758152535466,0.12795902980722101,-0.09907370263720384,-1.1582230550869528,0.5280626839034182,0.0810796612173867,-0.3697886134925432,-0.2917203490134751,-0.2931484384051377,-0.6388332246228919,-0.05372482225594337,-0.2664026428451811,-0.7435481631178965,-0.334737109810595,-0.4107138765329416,0.2560218332344817,-0.07510565826263965,-0.41591322046982454,0.37933971911340986,0.3536888847165011,0.23981074453429382,0.18237700130045162,-0.3514022845989264,-0.755589563160803,0.35009900577950837,-0.21654017488737642,0.22120556914444484,-0.19388966952449133,-0.7031440233563703,0.09635826503738776,0.09939217512709969,0.12759454815236565,-0.9344653518762842,-0.20796353313841093,-0.7547888802825162,0.7720994015368928,-0.18857122656744962,0.17693033525021148,-0.23453461050236776,1.6562387866581643
DB00208,0.022492569815194347,0.055307760136323526,-0.05325658787730417,0.06567966378764481,0.09286313003716867,-0.006012554656926866,0.018043029956578627,-0.0015288653234106003,-0.009985408072713609,-0.04317029259475358,-0.06381326214994461,-0.09459707090425548,-0.10573271933931741,-0.21933785138228315,-0.004630569493209202,0.07383411386586042,-0.04795979648990721,0.17120382995632288,-0.09403123378220986,0.056686769900634267,-0.0015605206669860906,0.23173797339856542,0.00040889556718377504,0.07965238488766747,-0.010709405050180662,-0.18007656937658284,0.12034068224579589,0.03160825666742739,-0.008616332424991543,-0.11549912599682988,-0.04612584266738838,0.0637211697280001,-0.039431598098893184,0.0451018987888072,-0.1263725437983804,-0.06793253817175113,0.021285271036082333,-0.07847321591038312,0.04119603196518859,0.04083245778362068,0.0761027549195536,-0.03356316021056253,0.026656973919343872,-0.07883810125773888,0.034486526805824994,-0.02320287730077939,-0.05615394536886409,-0.021500852069570135,0.13533220536649812,0.05059568309860732
DB00209,0.0840308047616094,0.3680052718022272,0.18175212610206895,-0.1887056127854839,0.0033371667320490836,-0.11982721194179768,0.06016635221962119,-0.013954846769367845,-0.30172537403791666,0.003279250401171302,0.0279968060995736,0.013805403787582916,-0.1278093127043589,-0.08216260003994616,0.33265316954385443,-0.004311282046911884,-0.0791016467938556,0.004737950855662747,-0.02462266479341732,-0.16108803300336977,0.022134222956172733,-0.0671301023262805,-0.0366039099962364,0.0990946470678018,-0.0979606564250228,0.17314652238600828,0.18047236949184609,-0.03385038241646464,0.07067521395153278,0.01971183341875908,0.1213925994451914,-0.020618523279751888,-0.16758121826327455,-0.029852030033076883,-0.23981942472465345,0.14407797906181605,-0.06441003458646259,-0.09334822304885881,0.029205005664681025,-0.015582645677243295,-0.09762213140970395,0.22062787318083513,0.18815933833238394,0.146779512952025,0.17231202845275834,-0.1270476387264588,0.10377041179085136,0.01901873870539165,-0.10658703970833269,0.1418571614720202
DB00210,0.054787188856347833,0.10924952880407292,-0.11406371571362076,0.016316551773740723,-0.06370012436408526,-0.13229030825142674,0.023651929941977366,-0.10362817507047806,-0.09558195562435848,-0.011885078885856729,0.04674895903663409,0.009327389150182705,-0.04157872006099479,0.002330991778680118,-0.05404994904754014,0.02790167719775868,-0.06006251191298117,-0.0918070496770518,-0.08861746048239716,0.10410953877602622,-0.03283159384210384,-0.011394869064213952,-0.03921053213719276,-0.033461158254874834,0.026936249236425916,-0.04491290274928719,0.13816768195089024,0.1675121067400948,0.020787088015762657,0.0966013575808022,0.07710597021847773,0.09784167449642256,0.10300580999220849,-0.07760436427151406,0.07593441237114748,-0.007756690806870491,0.008656225160036779,0.03140113611158915,-0.09359484482923261,0.11410052292587532,-0.08300784689701732,0.15693635029926575,0.06138236427357313,-0.012027828843684876,-0.022777209799701322,0.010266327909131817,-0.08381288096898176,-0.20102423965946398,-0.007793273092190675,0.08219029792060785
DB00211,0.1373268929031684,0.4690812627657655,-0.3073772614420955,0.2812819205588766,0.4295501371128716,0.17058486979071746,0.09315994099913785,-0.5134309981969283,0.11767381238619182,0.18960657663550584,0.28275684752247476,0.40517948287037636,0.0998481418132282,0.015239989434081863,-0.043685320528996145,-0.15178347997633646,-0.14591678417104811,0.10291451454448178,-0.20297818852782423,-0.09791926094832835,-0.20921216899821432,0.09087864913265052,0.02960381194919558,0.14669419303850345,-0.03259552626947167,-0.18340008265588023,-0.19605373892515213,0.22215234238358322,0.022431186251638997,0.02413230897004638,-0.05980760977384522,-0.24692207758121928,0.40234929001914554,0.3136980173498014,0.0927950652139195,0.08001284592280021,-0.16099312325340678,-0.18255771767955337,-0.19489075715685805,-0.10669104837519852,-0.004405705923907904,-0.4661295436100804,-0.21066971916643562,-0.03619523980066505,0.140587576265798,0.20709638110188766,0.04204688959017019,0.09801328671840825,0.1651699780020765,0.11739340833731929
DB00212,0.04302661224531562,0.1607899565788764,-0.19192227251792254,0.158648112929605,0.43481640706456604,0.20784306170372813,0.04810402193358745,-0.2813807773522533,0.0022480654496445417,0.2375713867556366,0.02960589742574837,0.3954011784769957,0.14926975111151564,0.29164541147918877,0.002855194922901499,-0.16511068941045076,-0.13481142895396933,-0.010758615065681107,-0.1958765541250752,-0.12867765093169647,-0.15076266389827545,0.02365199267723488,0.014384659244918848,-0.046083660190027846,0.003911164373300446,-0.030724029127814592,-0.0652213763900776,-0.07890401882363006,-0.01889754130584119,0.02714625134643614,0.023178320397399595,-0.05939430357694817,-0.06876244379865616,0.10340551874617351,-0.1102491194373395,-0.029309084847054113,-0.009939192857935705,-0.07555627520193049,-0.0905152644306017,0.07158258699835529,0.00081690110170746,-0.07301772750421184,0.0002408336442597947,-0.03306424731014597,-0.041373654346648935,0.05279989572769854,-0.0004349063229594148,-0.021732377412388287,0.03904443611176711,0.04871743488768119
DB00213,0.5014669328794295,0.7305643098496561,-0.607826701578692,0.5030900774430471,0.2670780203635824,0.034505455014572015,-0.011781011444511904,0.6544934493610348,-0.022537396796994257,-0.16262488841954215,0.18369935591582454,-0.9569378249552694,-0.4455161885496589,0.7918528389587788,0.23318401049906562,0.2661096482802611,-0.07019908300709647,-0.009777406478296863,0.4200135756362394,0.10338852547410217,-0.06812644208078758,0.40452591710215374,-0.08134933445031331,-0.06974633873426223,-0.15271180533974915,0.10565963366349912,-0.18494426025311428,-0.5063530073268413,-0.10449370657669511,-0.29329399072326184,-0.4055614713704714,-0.13310400544585388,-0.08553733025349061,0.5451430583330332,0.23285658982010066,0.13874491957092078,-0.11263749593964897,0.050103199458489636,0.28422095780550444,0.012663685747002648,-0.1281121969493355,0.15838014610958673,-0.2323760168447924,0.4425647872213889,0.004305779902459075,1.1190701639748624,0.260799661672806,0.46947704238612514,0.5749336777979562,0.21267055732223833
DB00214,0.1408951188522713,0.4593333762964593,-0.4922056544055083,0.41423209473917866,0.7803271804976153,0.35645546016170815,0.12299831216611865,-0.22535081301215043,0.029160246614339382,0.1216046921586698,0.017569724456267994,-0.08556438497062768,-0.0011733709299940887,0.5766326472408563,0.13814444814767468,-0.16971492709225122,-0.09137023193275275,-0.22625013146117307,0.18394362677246484,-0.018688724906278403,-0.15051756795259175,-0.021133930500369952,0.016285622100682674,-0.11788460992615146,0.022052249803393348,-0.012208819825624141,0.006380654172494504,-0.15069222872785515,0.14593064313603615,-0.14156491204445074,0.12448196837756334,-0.1609873240395572,-0.1541949293929797,0.18796462994860158,0.21097386440409904,-0.041654664292495536,0.024365712456063043,-0.16364346105484076,-0.02151626687132166,-0.029097748963440154,0.0990109780946596,-0.10317053716962658,-0.01955658927960252,-0.10532687522360004,-0.018555053342559025,0.048310518877793744,0.1491141891799044,0.1374994470894134,-0.024885966124767483,0.10969916240438399
DB00215,0.332434249699025,1.8745354262163851,1.505806046965572,-0.9288698021294157,0.31965404602738723,-0.01834928030753121,0.2559354438520841,-0.1816601992455214,-0.08606511756786414,-0.14232596066546394,0.06824865013965652,0.0196562472913732,0.10531215164518137,-0.31784211538369567,-0.15129210238930163,-0.033139205907249975,0.08556227846990075,0.27992768338772267,0.16286141266990914,0.009618956731664255,-0.2329376136919301,0.518284407310619,0.00179442151178906,-0.04827810335940355,-0.002901056699818178,0.06516586084933333,-0.19843751583859873,0.25537522627300446,-0.08587286433906871,-0.36314230809717224,-0.413537587324876,0.05405271694455791,-0.2778079860143858,0.3307917914353423,-0.0967926302527415,0.023211049493491287,0.027306024826459732,-0.3355732135059815,0.326755682786965,0.08152496468776095,0.0860509385688131,0.04372223287898104,-0.1627553252485652,-0.0898151380716288,-0.2583213158762325,0.17108095109978505,-0.1380295816438676,-0.6526203380206231,-0.032009298197578584,-0.04140388453277663
DB00216,0.03991704776995209,0.1244878867765885,-0.0006904967041657291,0.013310789073506506,-0.031931862369946176,-0.06384226279850375,-0.15429742029211133,-0.03547167329996989,0.13396139101788543,-0.013642577070059714,0.007959502343841025,-0.04571215023474278,-0.04896275122224221,0.06197179587178434,-0.034128125728045834,0.008075950496810804,0.017262687802596044,0.04496103899324563,0.044076023659492675,-0.0032601368137929214,0.09293616896797627,-0.07962649785958203,-0.06827417537125707,-0.12545319232940505,-0.029375510243572947,-0.10965173601320184,0.0796613305767616,-0.07599904800197158,0.04374381014709465,0.19204658072750208,-0.0006022627299288579,-0.015583318796746291,0.0401605957082889,-0.06362972447602336,-0.13970981887823922,-0.28480626330930797,-0.19840959616304935,0.1030835234776965,-0.005510062850368997,0.05253748269789786,0.0027393980801694983,0.06485874116634226,-0.006447439488251039,-0.031630896689982174,-0.09386857590179426,-0.07745973347981268,-0.09196799576269725,0.22422633339898534,0.028833836249448498,0.06949797972725721
DB00217,0.04125788260980151,0.13134120289231643,-0.12070614401864786,0.11542402793575787,0.20520305315890214,0.10740308726378836,0.031813205919998234,-0.15558830036150403,0.07634869859712498,0.0685237032303673,0.00801886242807531,0.06920384695940254,0.045024766521339674,-0.12377167468178207,-0.08517265049244854,0.0994958232259295,0.036102523921451295,-0.012767782001190858,0.3113843387116605,0.12798681301284623,0.2839970875809834,-0.23742955715670816,-0.022569354386964224,0.12035780631810206,-0.1316557739438911,0.2419967990103756,-0.00048190534435047086,0.130543678831127,-0.056052817100445004,0.18048235383835576,-0.0740297022074031,0.12122273134491378,0.06390722188806935,-0.1284941813938524,-0.03590969579017411,0.15844967626563855,-0.19519175945344147,0.15041558289800652,-0.0281616320659817,-0.09711159715826934,0.016050829419828258,0.1090485290465186,0.009035722254318942,-0.0487807129824302,-0.051706069176473586,-0.06434570614997125,0.012588505759340134,-0.02737146764595302,0.013793618083134231,-0.07836121780716808
DB00218,2.051472128350004,2.8126988233612242,-1.4823940467292174,0.47511082288594897,-1.8020605007631736,-1.065128619973773,1.3314848288538152,-0.43704533312490423,0.2704127557290708,0.2837719693092108,0.6227035085098811,-0.6699608937208797,-0.17548388507892745,0.08821635772340321,0.9372818675825665,-0.2590568758696019,-1.0977757358732552,-0.15550514980933033,0.43972234629372264,-0.5007510191482063,1.210444187393835,-0.8856940188272779,-0.09853204611654201,0.8031728418273868,1.2895813235552485,0.10106217400779827,1.0369425470649896,-0.3583279249566662,1.4877958702860892,0.8995220632845166,0.10955731465713453,-0.03467412108064431,-0.5811560682425665,-1.11551538372725,-0.8693113482562218,0.3638878430700714,-0.5599986118221713,-0.3651495560620214,-1.147101251389028,-0.18377783491755084,-0.023548999804656565,0.21778398838398105,-0.08257450920859619,-0.17674374033268517,0.11881323621989853,0.25728045524820137,-0.6556674854520375,-0.5879575468614968,0.34565206373102875,-0.5761231084339287
DB00219,0.0,0.0,0.0,0.0,0.0,0.0,0.0,0.0,0.0,0.0,0.0,0.0,0.0,0.0,0.0,0.0,0.0,0.0,0.0,0.0,0.0,0.0,0.0,0.0,0.0,0.0,0.0,0.0,0.0,0.0,0.0,0.0,0.0,0.0,0.0,0.0,0.0,0.0,0.0,0.0,0.0,0.0,0.0,0.0,0.0,0.0,0.0,0.0,0.0,0.0
DB00220,2.123110714586068,-0.2792931039342255,0.2860151014022313,0.6592347424180407,-0.13076123111163718,-0.3755815494152963,0.6849420089355411,0.19598424492112337,0.4235835410633674,-0.5819105210741612,-0.641466216025461,0.7878010993863338,-0.05603208015976228,-0.6937926050099716,-0.004919431240036756,0.13711400754140643,-0.38268471046093794,-0.5400904700659901,0.369547053152096,-0.39325446075556364,0.04453903584419572,-0.3625709601714922,0.23008254854252327,-0.5396682871782961,0.07278567276342959,-0.4392063197337979,-0.4158747503494968,0.7360664844524749,0.40270920725005815,-0.25168127535513224,0.7294537812118911,0.13875835154347133,0.28644817132365413,-0.05104643989198637,-0.054595368763855165,-0.13276231768516222,0.19768312809735078,-0.45109233500349954,0.11342460401360342,0.35220198922686935,-0.3105594500688809,-0.007749706244362234,0.13579150884945862,-0.619662831251601,0.2142595394385358,0.4152256028221839,0.07058517155993005,0.33171081756532655,-0.06605428761351743,0.12169492002423464
DB00221,0.004223921882364524,0.018449670256826586,-0.022998345116379007,0.004351461180407767,-0.010169522688679475,-0.031472755222017305,-0.04718074385343237,-0.028170035329935113,-0.11034669777927793,-0.03050184593264033,0.07564292864781036,0.05783597517770966,-0.0431245830658212,-0.05391470741124647,0.22384739918844937,-0.06956148365002966,0.04272077630967449,0.007263624063784138,0.046422612230135656,-0.0649106628179974,-0.03894282439532307,-0.09221577689057553,-0.019005031038950786,0.06067339777842123,-0.019505876378586258,-0.01732887812064008,-0.021003079328969866,-0.02532062682556231,-0.037363607096804245,0.023024472503364684,-0.00026026198846203886,0.0031174377372117043,-0.050862110992701826,0.047153176323528466,-0.027333806261244546,-0.0310402051309428,-0.0030091403946028174,0.015685867631423517,0.074886259496736,0.01444751054258491,-0.04187911954197703,-0.018702691275526456,0.0549374696413821,0.020263096895211268,0.07599737569454591,-0.05575086090696172,0.00429475969243413,0.015185294299582208,0.026917199985889217,0.08812443470784778
DB00222,0.0699518944230631,0.2359880098336294,-0.18454332728580058,0.16158232499619227,0.15587241537957347,0.08346606676588932,0.1025841455209255,0.1907197003124982,0.06382008868689126,-0.24117526589532434,-0.07114609604560723,-0.6087966072037333,-0.2437419954485656,0.45104469577629486,0.17935991040150515,-0.13967924777890625,-0.04254511035620442,-0.28213620725950195,0.41441334280579384,-0.05135565869523965,-0.03996717564402135,0.0004194976939530179,-0.17177221880950233,0.08602067827602478,0.13434204396840532,-0.020751210522060207,-0.0618096542867074,-0.09544515742670498,0.18165999385243292,-0.12218916137074709,-0.08771757051864557,-0.06511460239312475,-0.1585913635539944,0.32034423994493866,-0.03821913938919155,-0.0891420350257164,-0.097752578658382,-0.006695481495246205,-0.04952886186400571,-0.1408867902263591,0.019371894005770246,-0.03862319316032835,-0.08791021208373502,-0.14953247542170875,-0.015949919519988906,-0.006079908358021885,0.04617117596565701,-0.14701377561260798,0.06483426947171506,-0.08886916006139023
DB00223,0.0,0.0,0.0,0.0,0.0,0.0,0.0,0.0,0.0,0.0,0.0,0.0,0.0,0.0,0.0,0.0,0.0,0.0,0.0,0.0,0.0,0.0,0.0,0.0,0.0,0.0,0.0,0.0,0.0,0.0,0.0,0.0,0.0,0.0,0.0,0.0,0.0,0.0,0.0,0.0,0.0,0.0,0.0,0.0,0.0,0.0,0.0,0.0,0.0,0.0
DB00224,0.7218028844231208,0.22018665240921464,-0.18645837082285727,0.2789095659296235,-0.23025553306410054,0.38455341390227976,0.49861847676901844,0.04627975194766163,0.611857983849547,0.0710769782414823,-0.6258232983155503,0.3879089449769519,0.5222606961938188,-0.5141708304108663,0.4831389335760771,0.2072808184132597,-0.1634677185444352,-0.27784131616538954,0.5418020949649552,0.024603660020610242,0.13438004220915303,-0.31675269462637595,-0.27768240087907287,0.08552302712767287,-0.2144997353280089,0.07106310071346632,-0.05666038152898806,0.1071083874808287,0.31872017225228466,0.22711429445536807,0.07356140704716874,0.25756818650285,0.12576116192971803,-0.3134262119628301,-0.004338610660809483,0.07339823201706205,-0.10636019757334378,-0.11144271875305958,0.10864336561285753,-0.039241255998386196,-0.03882967062109071,-0.00797792566116309,0.05284434842889259,-0.19019465009442496,0.05719535982584001,0.05012244265370404,-0.25195060792400054,0.04718967469925891,0.13092404123662227,-0.13362251913135392
DB00225,0.0,0.0,0.0,0.0,0.0,0.0,0.0,0.0,0.0,0.0,0.0,0.0,0.0,0.0,0.0,0.0,0.0,0.0,0.0,0.0,0.0,0.0,0.0,0.0,0.0,0.0,0.0,0.0,0.0,0.0,0.0,0.0,0.0,0.0,0.0,0.0,0.0,0.0,0.0,0.0,0.0,0.0,0.0,0.0,0.0,0.0,0.0,0.0,0.0,0.0
DB00226,0.0,0.0,0.0,0.0,0.0,0.0,0.0,0.0,0.0,0.0,0.0,0.0,0.0,0.0,0.0,0.0,0.0,0.0,0.0,0.0,0.0,0.0,0.0,0.0,0.0,0.0,0.0,0.0,0.0,0.0,0.0,0.0,0.0,0.0,0.0,0.0,0.0,0.0,0.0,0.0,0.0,0.0,0.0,0.0,0.0,0.0,0.0,0.0,0.0,0.0
DB00227,1.4156017226154325,0.8751367778009438,-0.7850791913650498,0.5624228099373466,0.5788884702082625,-0.041836791433626286,-0.00026150844645724675,0.6531156117828345,-0.18459247341489576,0.3988204468752638,0.9854522095408969,0.9339239930732587,-0.37481131523942657,-0.4654040853024617,0.5634697211415161,-0.5250267154479566,-0.14501741611608623,0.38998750852286396,-1.0118900966336768,-0.16201067660990442,-0.08211169012651026,0.6741380642659707,-0.5881597008682359,0.22880680775003348,0.026440003726447055,-0.37226606414356445,0.15018525015158016,-0.14701638987032165,0.5883231070812592,0.5955413267509345,-0.07332799818136064,0.3264763549234939,-0.20344693863152205,0.10142343781783003,-0.005700178043992032,0.5156828616221796,-0.11057785965452466,-0.40124967680307644,-0.08813103174566135,-0.3184352244333103,0.3779377352710564,0.45460283291488557,0.5427018593376798,0.061346226950412364,-0.31100735490910963,-0.19868875149320578,0.25420526469566546,-0.30435186178213197,-0.21568172687562948,-0.5515022883344413
DB00228,0.0,0.0,0.0,0.0,0.0,0.0,0.0,0.0,0.0,0.0,0.0,0.0,0.0,0.0,0.0,0.0,0.0,0.0,0.0,0.0,0.0,0.0,0.0,0.0,0.0,0.0,0.0,0.0,0.0,0.0,0.0,0.0,0.0,0.0,0.0,0.0,0.0,0.0,0.0,0.0,0.0,0.0,0.0,0.0,0.0,0.0,0.0,0.0,0.0,0.0
DB00229,0.0,0.0,0.0,0.0,0.0,0.0,0.0,0.0,0.0,0.0,0.0,0.0,0.0,0.0,0.0,0.0,0.0,0.0,0.0,0.0,0.0,0.0,0.0,0.0,0.0,0.0,0.0,0.0,0.0,0.0,0.0,0.0,0.0,0.0,0.0,0.0,0.0,0.0,0.0,0.0,0.0,0.0,0.0,0.0,0.0,0.0,0.0,0.0,0.0,0.0
DB00230,0.6619901773272201,2.29553315595601,1.2442213807319678,-0.7215094709925021,-0.10997643394384155,-0.6265484739889864,-0.9074388668788862,-0.5585763229372761,0.7118094084571145,-0.08778384416081896,-0.5500100064085035,-0.46922216537949685,-0.6446733794970074,0.5533550839395895,0.027791448458212777,0.003417564197143251,0.1607163453617189,0.17174795591409697,0.34598722303969753,-0.10829129442673176,-0.16953716940663563,0.16893771149692058,-0.06699415400956901,-0.8546916439187693,0.8720376959726227,-0.241131911376594,-0.3006102391283945,-1.064390299001384,-0.09920859250356752,1.3308018764882057,0.2274221098914596,-0.23502222665383976,-0.5328398500794319,-0.11915645239546384,-0.5967776152602442,-0.11335558074731314,-0.12402855111589214,0.4488963943437445,0.061053593306484674,0.4951478084047751,0.017895266174467572,0.7587573230342846,-0.01105589715820296,-0.5783078235945162,0.15808621179592774,0.007845148913328742,0.060288133894912554,-0.1500051717349309,0.0795944281827741,0.4155260550231245
DB00231,0.19549837198129455,1.152613090284907,0.9789623070902886,-0.7022812437111488,0.21403751245083752,-0.1456673669155128,0.23350640324127483,-0.02854808141978679,-0.6883327633072769,0.4277471630792111,-0.43281470033609437,0.02362171047086827,-0.44772815572271163,-0.06961638679323214,0.38273973548108653,0.21146517429401052,0.06809758757311801,3.6242935086944206e-05,0.030261956987490596,-0.14584998685109973,-0.07087899703906528,-0.12085482308734535,-0.06079658509907021,0.19382087615754026,-0.07454232555489768,0.06207830232697081,-0.23120018967277184,-0.08780961635720083,0.09058341282680651,0.0005299442455868469,0.014730845572201251,0.06592627867513776,0.031111652966419212,-0.0830926000920476,-0.11943446425177379,0.003943665594586074,0.011066563528595696,0.04969071272186032,-0.09545703989410334,-0.007071732867855063,0.12332557656816845,0.1361727725165206,0.3202821008218112,0.1214484785779171,-0.0021725798080308445,-0.1041162097537924,0.17854381171225425,0.12060342770601344,-0.30120207744322824,0.19602100183644486
DB00232,0.04302661224531562,0.1607899565788764,-0.19192227251792254,0.158648112929605,0.43481640706456604,0.20784306170372813,0.04810402193358745,-0.2813807773522533,0.0022480654496445417,0.2375713867556366,0.02960589742574837,0.3954011784769957,0.14926975111151564,0.29164541147918877,0.002855194922901499,-0.16511068941045076,-0.13481142895396933,-0.010758615065681107,-0.1958765541250752,-0.12867765093169647,-0.15076266389827545,0.02365199267723488,0.014384659244918848,-0.046083660190027846,0.003911164373300446,-0.030724029127814592,-0.0652213763900776,-0.07890401882363006,-0.01889754130584119,0.02714625134643614,0.023178320397399595,-0.05939430357694817,-0.06876244379865616,0.10340551874617351,-0.1102491194373395,-0.029309084847054113,-0.009939192857935705,-0.07555627520193049,-0.0905152644306017,0.07158258699835529,0.00081690110170746,-0.07301772750421184,0.0002408336442597947,-0.03306424731014597,-0.041373654346648935,0.05279989572769854,-0.0004349063229594148,-0.021732377412388287,0.03904443611176711,0.04871743488768119
DB00233,0.2250250236500142,0.31552966845092595,-0.46203550241587965,-0.09144706768469857,-0.39443946485478265,-0.419285562043584,0.5956050342186939,0.15758338196281418,0.17867382518423652,0.15926128705281278,-0.19035654014393893,0.20117057377337114,0.15405413099426193,-0.12405233215544852,-0.06615658794251456,-0.14806356022707923,-0.39473674450668383,-0.09629270905708628,0.006933691941030936,-0.1336671637489192,0.05980334390175789,0.12333070598530856,-0.3056291210636759,-0.35761557902543695,0.1307716805575302,0.23180624783464684,0.012246963182581512,-0.21441741502816608,0.069247262572283,-0.19526097744291732,0.033518848855686394,0.3237073563167741,-0.03158732937885056,-0.35148630937518754,0.16503975288478387,0.11451185255380053,0.16211879496271,0.09923897679079616,0.12346618760653735,0.27381913452435824,0.14899066542602532,-0.3271532372569361,-0.034011257525911553,-0.06741567107052236,0.19553672996894278,0.05557263733004929,0.34719203098448853,-0.08313287424179228,0.08746812294230531,0.014922929653572989
DB00234,0.0,0.0,0.0,0.0,0.0,0.0,0.0,0.0,0.0,0.0,0.0,0.0,0.0,0.0,0.0,0.0,0.0,0.0,0.0,0.0,0.0,0.0,0.0,0.0,0.0,0.0,0.0,0.0,0.0,0.0,0.0,0.0,0.0,0.0,0.0,0.0,0.0,0.0,0.0,0.0,0.0,0.0,0.0,0.0,0.0,0.0,0.0,0.0,0.0,0.0
DB00235,0.12694840831361376,0.36807580329252176,-0.4118200937442294,0.3228115861487327,0.7186908646165775,0.2915042926263766,0.06521487678151748,-0.41568273704951136,-0.08089288420968091,0.15524740004763984,0.08425262559352091,0.23316565406590395,0.09431159101490266,0.19641662102062812,0.09451393038966882,0.026114005821173514,0.006891161856312722,0.005638966665701675,0.025248898083648802,0.13813589096809803,-0.07361919784903763,0.05511640211005897,0.1603202757231982,-0.15668748416119546,-0.1261498890826554,-0.007223859175584536,0.015593626303242153,-0.2841374623735034,-0.007887829591001774,0.09099264789104676,0.32196073252318275,-0.12296543876376426,-0.11720432566270662,0.06913573437250686,0.23138240181716668,0.10367067688674705,0.3799858865530931,-0.14021417184465684,0.19182814971583484,0.1714890189522974,0.0626696218555182,-0.1446020067263229,0.04598756623948996,0.05138852659212602,0.0061749497622282865,0.1783101154972112,-0.02718316560019255,0.06614796805453599,-0.13691868874840335,0.061411219814818195
DB00236,0.0,0.0,0.0,0.0,0.0,0.0,0.0,0.0,0.0,0.0,0.0,0.0,0.0,0.0,0.0,0.0,0.0,0.0,0.0,0.0,0.0,0.0,0.0,0.0,0.0,0.0,0.0,0.0,0.0,0.0,0.0,0.0,0.0,0.0,0.0,0.0,0.0,0.0,0.0,0.0,0.0,0.0,0.0,0.0,0.0,0.0,0.0,0.0,0.0,0.0
DB00237,0.0,0.0,0.0,0.0,0.0,0.0,0.0,0.0,0.0,0.0,0.0,0.0,0.0,0.0,0.0,0.0,0.0,0.0,0.0,0.0,0.0,0.0,0.0,0.0,0.0,0.0,0.0,0.0,0.0,0.0,0.0,0.0,0.0,0.0,0.0,0.0,0.0,0.0,0.0,0.0,0.0,0.0,0.0,0.0,0.0,0.0,0.0,0.0,0.0,0.0
DB00238,0.19082703229435052,0.29408237399199255,-0.43549736880316214,0.01160369841912672,-0.48846144293098437,-0.4253673255346676,0.8909548868360933,0.15980244476213634,0.5082894009260482,0.25305737256277655,-0.2874956499583056,0.39010148843509357,0.07787724840950132,-0.09569329886286393,0.2236467879531352,-0.14230210340691424,0.07567239997490886,0.05032958163352535,0.1046525668646707,0.07390840789751713,0.03750355873359521,-0.0032096265772968424,-0.09776025841549463,-0.1814993340618521,-0.19014961042939024,-0.0752422743753872,0.06550125665179031,-0.05461434633250133,0.03892204110326809,0.03567658280702764,0.01868009258456442,-0.0073332078120486865,0.1349921719177547,-0.009000204248767518,0.06134994601725516,-0.06911617651398487,0.16593438393614865,-0.07453014253463727,0.018947093690360982,-0.1698375600500287,-0.0020751447344869722,0.0836072214035643,0.08212781569879932,-0.13925163958721565,0.2092379226574112,0.10606668985051088,-0.08258224997176898,-0.020220241262413466,0.1013043328328081,0.035136401741190676
DB00239,0.0011303630418358396,0.003904704576697864,-0.006765408712357358,0.000849862044408861,-0.007185001160564622,-0.0039585004021765145,0.010020492953499409,-0.007887511281783706,0.004977779251873682,-0.00140237464412486,-0.001126782406124524,0.006754939904498682,-0.0038190464627448767,-0.01174156144858353,0.006581125720533602,0.005045301969634877,0.012476462539958752,0.008237790448604464,-0.0006459117788271552,0.006269550992496909,-0.003298640670535955,0.008048177289435715,0.0006933628453630335,0.0054903455746233495,-0.007758949525137088,0.01267779067326462,0.008028833744895783,-0.003575331603801497,-0.0027473692252037185,0.0050011995763129735,0.009363821961527208,-0.01601741960857959,0.0013540882550648887,0.00942502433512731,0.020039543751767797,-0.012069249684994315,0.015640851618903814,-0.0007838829673514048,-0.0034989449161615008,-0.011901407603183516,-0.02321812220801036,0.03377066465382136,0.018217045942898056,-0.00041571973779133697,-0.02035627262626847,-0.0010442698382658374,0.00701767602646494,0.00704145207507265,-0.006163279916189437,-0.0036403621367460046
DB00240,0.0,0.0,0.0,0.0,0.0,0.0,0.0,0.0,0.0,0.0,0.0,0.0,0.0,0.0,0.0,0.0,0.0,0.0,0.0,0.0,0.0,0.0,0.0,0.0,0.0,0.0,0.0,0.0,0.0,0.0,0.0,0.0,0.0,0.0,0.0,0.0,0.0,0.0,0.0,0.0,0.0,0.0,0.0,0.0,0.0,0.0,0.0,0.0,0.0,0.0
DB00241,0.030201525744399275,0.09205039278466927,0.0041325032375222935,0.013111843368477922,-0.032888956343086126,-0.053942388034718396,-0.11441135288432583,-0.01905674443659954,0.11511570646409512,0.011541470342461646,-0.007129125073799685,-0.03962703699197453,-0.0632344709009519,0.04170388259344982,-0.019833974802910187,0.002379548328824398,-0.0027558575849540063,0.010472979295364745,-0.01176709104923234,-0.023101352288913354,0.10952408950528693,-0.06845860360890554,-0.05111009671541233,-0.13061516822376956,0.010020826468663075,-0.12629931473784706,0.07591523277359612,-0.07564827294442569,0.01301797846882825,0.20120015911302302,0.005066657127915738,-0.03690586692917458,0.034035238735085356,-0.0411867281900847,-0.11419021843557874,-0.20742741908307927,-0.18881117532058256,0.08594071249947363,-0.0024575808100106207,0.010865020389789115,-0.01497834145140206,0.08081746208777905,0.002263009780068137,-0.02110193083046413,-0.03726275630809799,-0.08156232931746288,-0.0708887127143037,0.16119111092288327,0.05192970090937728,0.023825653522659116
DB00242,1.5568809603807803,-0.31723646654971493,-0.3803483619031215,-1.0890877489545019,-0.4072583462616558,1.2420467875039598,0.17234343797510607,-0.334883010576039,0.1787529139987841,-0.2964502410534646,0.14539373336035405,-0.10638386405327058,-0.1694813197557005,0.12293886003691809,0.40439830209276784,0.07864796618296663,-0.017156983096894687,0.008227352764304058,-0.6069098701134321,0.08727939549215925,0.3911888734074218,-0.033408770167987364,0.15551285877894078,-0.14537818479820433,0.3272108715673433,0.2616280329141209,-0.06355568139857223,-0.17742431106349138,-0.43432310407666297,-0.1947556329726401,-0.1167495759773971,0.24190565237484402,0.351868047212059,0.13200112872295838,0.28209790306786137,0.025920175943426105,-0.2763044910307173,0.2835297129987595,0.428608423204601,-0.19408408769381297,0.2760116365026859,0.06409938986545717,-0.11454907932290803,-0.1272487559190658,0.07773236759544931,0.1753135290229604,-0.07319169730243325,0.18891588923452418,0.2662868778110627,0.2110827829611549
DB00243,0.2066614302994877,0.6437164321767772,-0.6487961356243701,0.5992139933212572,1.0856441085057436,0.44375898214379855,0.18101194487017178,-0.31884958737054403,0.12050597440298469,0.09868029638260684,-0.1245680361249685,-0.2322527781026013,-0.19136414670890517,-0.04138069468899375,0.12441485994126637,-0.0091975351859796,-0.25733793496185275,0.2922748547149433,-0.10344908609847106,-0.0015828850200433897,-0.13928516297439048,0.42660847962931436,-0.009671838550495799,0.03997539545823305,0.2030746755087156,-0.2491468945110044,0.11704053314090151,-0.011898669565801753,0.22702319351987382,-0.11565524479210512,-0.11928868684208807,0.04252766041213168,-0.1582471622674042,0.10283686503081521,-0.3806634263559622,-0.257921477175609,0.3578675554750131,0.044642647300384905,0.10736360393411032,-0.11772395731205476,0.32431739937632115,0.04748592150350403,-0.10525041460706074,-0.25532561299167067,-0.22838639867666996,-0.39777345106492845,-0.10158394748474721,-0.027840246145799982,0.06593026065396534,-0.08802274278518982
DB00244,0.2657162720517579,0.12210046202264693,-0.12634114135605307,0.059357278045260156,-0.04430834583764658,-0.24629107786851467,-0.041227081458452386,0.12256210251374704,-0.1675247992732889,-0.25675235401820284,-0.17663485675753562,-0.002580489490710488,-0.09888726348780501,0.03673013272248358,-0.21170061411229624,-0.1741747747483525,-0.09431900553907202,-0.11555956546203146,-0.20934570540255326,-0.22904806693223287,-0.3456717477339569,0.2130612218206421,0.2598022552937177,-0.31555694638401394,0.009049433201898192,0.6467911227531065,0.0036864286944886873,-0.10341633853558764,-0.0008507966714898802,-0.065905685688482,0.06509271354031207,-0.00041228567552479417,0.28824091566044646,-0.35788903209883466,0.1210616362109394,0.02242783429567298,-0.0473400700480289,0.08545855926761647,0.22080346988098487,0.2612513013777663,-0.04693509148414627,0.17741134669786554,-0.0417565130901963,-0.3364625369086568,0.003250462169906477,0.06037377909501761,0.2593278117584815,-0.1576262243118926,-0.07350975892658065,-0.063621692352408
DB00245,0.05633640576448881,0.2921003570142712,0.1511470159179989,-0.08505754658169663,-0.01333405862924759,0.007546498717100244,0.0005177456166075142,-0.018793252253169846,0.20041397619983012,-0.3240661799221207,0.4120242365213548,-0.05782750220198365,0.3049173473898224,-0.0044798995303375125,-0.12376019583474024,-0.23525757340661602,-0.037430087690956106,0.07612370945872154,0.0044301340965054725,0.064202671545506,0.05168002201084088,0.12292909523832896,-0.006333715250329039,0.13075228622812343,-0.13935822619944,-0.12384777594393678,-0.05025550244520491,-0.2056824595538004,0.3311303404069811,0.08071165538197937,-0.0577663159062395,0.11450900282621049,0.3617183655522286,0.08053482430106539,-0.22624955071513603,0.29868686067182043,0.028497569566203917,-0.33316746475917347,-0.009788876474169955,0.08625039557173567,0.08560201472767495,0.16175042058250763,0.05703582591675149,0.008319783884114203,0.05748699575551054,-0.013860940409037792,-0.016441617940063536,0.05664769730828235,-0.09807770741515262,-0.08835045602459164
DB00246,0.27848901414902366,1.5696859582045546,1.1343404915835975,-0.7325553528523445,0.7233374073963468,0.14183295686262104,0.4338696440555997,-0.24411684715558613,-0.5044973029103568,0.6458114592146218,-0.35412170994853404,0.39279219573992824,-0.0848904599796966,0.4259944399256112,0.06803571998933605,-0.005837980698319867,-0.1658856902429432,-0.12212026043006684,-0.27526485105677917,-0.17403859465961324,-0.12261395311711853,0.029137539348969982,0.10688967174261756,-0.06934865610088703,-0.17998850209564496,0.07993198649958007,0.2742988722610337,0.1352039044893669,-0.16591023851636053,-0.1982353409385028,0.17293394548368357,-0.1217226995615022,-0.24888569896633736,0.1927468863329438,-0.09512354189893477,0.14697714087571556,-0.1406703989442778,-0.38600840930823715,0.023926847248216185,-0.16473566053807454,-0.17352575378552837,-0.31226672487538043,-0.20301433252974604,0.16905380042683954,-0.17949118115507406,-0.06633935408104089,-0.10383328316663204,-0.14117634143503377,0.07731597937262083,-0.10763557830575553
